{"learner":{"attributes":{},"feature_names":[],"feature_types":[],"gradient_booster":{"model":{"gbtree_model_param":{"num_parallel_tree":"1","num_trees":"100"},"iteration_indptr":[0,1,2,3,4,5,6,7,8,9,10,11,12,13,14,15,16,17,18,19,20,21,22,23,24,25,26,27,28,29,30,31,32,33,34,35,36,37,38,39,40,41,42,43,44,45,46,47,48,49,50,51,52,53,54,55,56,57,58,59,60,61,62,63,64,65,66,67,68,69,70,71,72,73,74,75,76,77,78,79,80,81,82,83,84,85,86,87,88,89,90,91,92,93,94,95,96,97,98,99,100],"tree_info":[0,0,0,0,0,0,0,0,0,0,0,0,0,0,0,0,0,0,0,0,0,0,0,0,0,0,0,0,0,0,0,0,0,0,0,0,0,0,0,0,0,0,0,0,0,0,0,0,0,0,0,0,0,0,0,0,0,0,0,0,0,0,0,0,0,0,0,0,0,0,0,0,0,0,0,0,0,0,0,0,0,0,0,0,0,0,0,0,0,0,0,0,0,0,0,0,0,0,0,0],"trees":[{"base_weights":[-0E0,1.4608784E-1,-4.0225804E-2,-1.00959696E-1,2.1583825E-1,-1.4874085E-2,-3.672545E-1,-1.14310365E-2,-8.21894E-1,2.7208924E-1,-2.1390124E-1,3.8510321E-3,-4.0470654E-1,1.9277109E-1,-3.9836067E-1,-7.590429E-2,1.9726028E-1,1.9272727E-1,-1.1081339E0,1.9710146E-1,2.5756404E-1,2.3303697E-1,-6.598131E-1,1.960199E-1,1.2634073E-3,1.1384616E0,-4.9140546E-1,1.92E-1,-4.2707816E-1,1.9172414E-1,-1.0854817E-1,1.5555556E-1,-1.1741683E0,1.9361703E-1,2.4772325E-1,8.162393E-1,-2.2074689E-1,1.8441558E-1,-7.5181425E-1,1.9396985E-1,-1.2782079E-3,1.4382023E0,-1.7894737E-1,1.9205299E-1,-5.4486424E-1,1.908397E-1,-4.5258656E-1,1.90625E-1,-1.38073405E-2,1.4666668E-1,-1.2087043E-1,1.934066E-1,2.3809971E-2,-1.818182E-2,1.1575931E-1,1.8481013E-1,-3.6460176E-2,1.8260871E-1,-8.391609E-2,1.9587629E-1,-3.7866546E-4,-1.6521738E-1,1.6320476E-1,1.8956523E-1,-5.866467E-2,1.9370079E-1,-4.7814302E-2],"categories":[],"categories_nodes":[],"categories_segments":[],"categories_sizes":[],"default_left":[0,0,0,0,0,0,0,0,0,0,0,0,0,0,0,0,0,0,0,0,0,0,0,0,0,0,0,0,0,0,0,0,0,0,0,0,0,0,0,0,0,0,0,0,0,0,0,0,0,0,0,0,0,0,0,0,0,0,0,0,0,0,0,0,0,0,0],"id":0,"left_children":[1,3,5,7,9,11,13,15,17,19,21,23,25,-1,27,29,-1,-1,31,-1,33,35,37,-1,39,41,43,-1,45,-1,47,-1,49,-1,51,53,55,-1,57,-1,59,61,-1,-1,63,-1,65,-1,-1,-1,-1,-1,-1,-1,-1,-1,-1,-1,-1,-1,-1,-1,-1,-1,-1,-1,-1],"loss_changes":[3.2194998E2,2.0384659E2,3.5614398E2,1.6812845E2,2.2304446E2,2.9102432E2,2.2139127E2,2.9669357E2,2.285723E2,2.0079059E2,2.1305069E2,1.9257607E2,2.4502908E2,0E0,2.0388138E2,1.4635815E2,0E0,0E0,4.7779053E1,0E0,1.3314539E2,1.4156827E2,1.2463335E2,0E0,1.8718227E2,8.814171E1,2.2420773E2,0E0,1.8039081E2,0E0,1.3178978E2,0E0,2.5075348E1,0E0,1.3007013E2,7.993211E1,9.033E1,0E0,1.17889435E2,0E0,1.8656386E2,5.6012283E1,0E0,0E0,1.7385046E2,0E0,1.830202E2,0E0,0E0,0E0,0E0,0E0,0E0,0E0,0E0,0E0,0E0,0E0,0E0,0E0,0E0,0E0,0E0,0E0,0E0,0E0,0E0],"parents":[2147483647,0,0,1,1,2,2,3,3,4,4,5,5,6,6,7,7,8,8,9,9,10,10,11,11,12,12,14,14,15,15,18,18,20,20,21,21,22,22,24,24,25,25,26,26,28,28,30,30,32,32,34,34,35,35,36,36,38,38,40,40,41,41,44,44,46,46],"right_children":[2,4,6,8,10,12,14,16,18,20,22,24,26,-1,28,30,-1,-1,32,-1,34,36,38,-1,40,42,44,-1,46,-1,48,-1,50,-1,52,54,56,-1,58,-1,60,62,-1,-1,64,-1,66,-1,-1,-1,-1,-1,-1,-1,-1,-1,-1,-1,-1,-1,-1,-1,-1,-1,-1,-1,-1],"split_conditions":[2.00001E0,-7.960707E-1,1.441762E0,-8.2774657E-1,1.3758274E0,1.8036802E0,2.00001E0,-9.243804E-1,2.00001E0,-7.11769E-1,2.00001E0,2.00001E0,-1.6395897E0,1.9277109E-1,2.00001E0,2.00001E0,1.9726028E-1,1.9272727E-1,2.00001E0,1.9710146E-1,2.00001E0,-6.8983793E-1,2.00001E0,1.960199E-1,2.00001E0,-5.9007347E-4,2.00001E0,1.92E-1,2.00001E0,1.9172414E-1,2.00001E0,1.5555556E-1,2.00001E0,1.9361703E-1,2.00001E0,-1.2044871E0,2.00001E0,1.8441558E-1,2.00001E0,1.9396985E-1,2.00001E0,2.00001E0,-1.7894737E-1,1.9205299E-1,2.00001E0,1.908397E-1,2.00001E0,1.90625E-1,-1.38073405E-2,1.4666668E-1,-1.2087043E-1,1.934066E-1,2.3809971E-2,-1.818182E-2,1.1575931E-1,1.8481013E-1,-3.6460176E-2,1.8260871E-1,-8.391609E-2,1.9587629E-1,-3.7866546E-4,-1.6521738E-1,1.6320476E-1,1.8956523E-1,-5.866467E-2,1.9370079E-1,-4.7814302E-2],"split_indices":[111417,1,2,1,1,0,53031,1,43822,1,111419,11407,1,0,94461,45149,0,0,10033,0,104188,2,58175,0,28853,2,66567,0,53540,0,110007,0,41912,0,8059,2,56581,0,15116,0,44088,111421,0,0,58581,0,77684,0,0,0,0,0,0,0,0,0,0,0,0,0,0,0,0,0,0,0,0],"split_type":[0,0,0,0,0,0,0,0,0,0,0,0,0,0,0,0,0,0,0,0,0,0,0,0,0,0,0,0,0,0,0,0,0,0,0,0,0,0,0,0,0,0,0,0,0,0,0,0,0,0,0,0,0,0,0,0,0,0,0,0,0,0,0,0,0,0,0],"sum_hessian":[5.4784E4,1.18275E4,4.29565E4,2.604E3,9.2235E3,3.9867E4,3.0895E3,2.31725E3,2.8675E2,8.15625E3,1.06725E3,3.804075E4,1.82625E3,4.05E1,3.049E3,2.24525E3,7.2E1,2.65E1,2.6025E2,6.8E1,8.08825E3,5.3325E2,5.34E2,4.925E1,3.79915E4,9.65E1,1.72975E3,3.65E1,3.0125E3,3.525E1,2.21E3,5.75E0,2.545E2,4.6E1,8.04225E3,2.33E2,3.0025E2,1.825E1,5.1575E2,4.875E1,3.794275E4,8.8E1,8.5E0,3.675E1,1.693E3,3.175E1,2.98075E3,3.1E1,2.179E3,2.75E0,2.5175E2,4.45E1,7.99775E3,5.95E1,1.735E2,1.875E1,2.815E2,1.625E1,4.995E2,4.75E1,3.789525E4,4.75E0,8.325E1,2.775E1,1.66525E3,3.075E1,2.95E3],"tree_param":{"num_deleted":"0","num_feature":"111427","num_nodes":"67","size_leaf_vector":"1"}},{"base_weights":[7.113773E-5,1.317519E-1,-3.6171325E-2,-2.4363568E-2,2.2776213E-1,-1.1983139E-2,-3.161484E-1,1.9128333E-1,-4.5107484E-2,1.9502892E-1,2.097835E-1,4.596424E-3,-3.5723603E-1,1.761789E-1,-3.4199575E-1,-6.3763416E-1,1.4117249E-2,2.791305E-1,-1.9235417E-1,-1.7087977E-2,2.188198E-1,1.037252E0,-4.3552908E-1,1.7492877E-1,-3.6517632E-1,1.9142656E-1,-8.41415E-1,6.121319E-2,-8.32508E-1,1.9296843E-1,2.6772675E-1,1.8298179E-1,-2.7269852E-1,1.935153E-1,-1.9712254E-2,1.9714923E-1,1.8305236E-1,1.3032315E0,-1.6362277E-1,1.7497478E-1,-4.8394752E-1,1.9485562E-1,-3.8638225E-1,1.7037743E-1,-9.405602E-2,3.115567E-2,-8.857286E-3,9.1437E-3,-1.09525524E-1,-4.5402046E-2,2.9342711E-2,1.8175451E-1,-3.4537062E-2,1.9546556E-1,-2.223952E-3,7.564414E-3,5.3788997E-2,-1.5245551E-1,1.4808376E-1,1.9500427E-1,-5.244855E-2,1.9794808E-1,-4.0752936E-2],"categories":[],"categories_nodes":[],"categories_segments":[],"categories_sizes":[],"default_left":[0,0,0,0,0,0,0,0,0,0,0,0,0,0,0,0,0,0,0,0,0,0,0,0,0,0,0,0,0,0,0,0,0,0,0,0,0,0,0,0,0,0,0,0,0,0,0,0,0,0,0,0,0,0,0,0,0,0,0,0,0,0,0],"id":1,"left_children":[1,3,5,7,9,11,13,-1,15,-1,17,19,21,-1,23,25,27,29,31,33,35,37,39,-1,41,-1,43,45,47,-1,49,-1,51,-1,53,-1,55,57,-1,-1,59,-1,61,-1,-1,-1,-1,-1,-1,-1,-1,-1,-1,-1,-1,-1,-1,-1,-1,-1,-1,-1,-1],"loss_changes":[2.6139456E2,1.7719052E2,2.908628E2,1.8101831E2,2.2627472E2,2.2631113E2,1.8404736E2,0E0,1.5637105E2,0E0,2.0210336E2,1.7524962E2,1.9823936E2,0E0,1.6421957E2,2.1217834E2,1.6160802E2,1.1580731E2,1.7373193E2,1.755526E2,2.1702748E2,7.0823845E1,1.8241217E2,0E0,1.6454251E2,0E0,9.639957E1,1.4399142E2,5.195102E1,0E0,1.1400293E2,0E0,1.5653586E2,0E0,1.7076099E2,0E0,1.2952267E2,4.6662918E1,0E0,0E0,1.667453E2,0E0,1.6634708E2,0E0,0E0,0E0,0E0,0E0,0E0,0E0,0E0,0E0,0E0,0E0,0E0,0E0,0E0,0E0,0E0,0E0,0E0,0E0,0E0],"parents":[2147483647,0,0,1,1,2,2,3,3,4,4,5,5,6,6,8,8,10,10,11,11,12,12,14,14,15,15,16,16,17,17,18,18,19,19,20,20,21,21,22,22,24,24,26,26,27,27,28,28,30,30,32,32,34,34,36,36,37,37,40,40,42,42],"right_children":[2,4,6,8,10,12,14,-1,16,-1,18,20,22,-1,24,26,28,30,32,34,36,38,40,-1,42,-1,44,46,48,-1,50,-1,52,-1,54,-1,56,58,-1,-1,60,-1,62,-1,-1,-1,-1,-1,-1,-1,-1,-1,-1,-1,-1,-1,-1,-1,-1,-1,-1,-1,-1],"split_conditions":[2.00001E0,-3.3894625E-1,1.4136808E0,2.00001E0,-2.4785867E-1,1.8036802E0,2.00001E0,1.9128333E-1,-1.1728842E0,1.9502892E-1,1.3758274E0,1.1559633E0,-1.6395897E0,1.761789E-1,2.00001E0,2.00001E0,1.4713647E0,2.00001E0,2.00001E0,2.00001E0,1.2030196E0,-5.9007347E-4,2.00001E0,1.7492877E-1,2.00001E0,1.9142656E-1,2.00001E0,-3.8054016E-1,2.00001E0,1.9296843E-1,-1.5590339E0,1.8298179E-1,2.00001E0,1.935153E-1,2.00001E0,1.9714923E-1,8.2217956E-1,2.00001E0,-1.6362277E-1,1.7497478E-1,2.00001E0,1.9485562E-1,2.00001E0,1.7037743E-1,-9.405602E-2,3.115567E-2,-8.857286E-3,9.1437E-3,-1.09525524E-1,-4.5402046E-2,2.9342711E-2,1.8175451E-1,-3.4537062E-2,1.9546556E-1,-2.223952E-3,7.564414E-3,5.3788997E-2,-1.5245551E-1,1.4808376E-1,1.9500427E-1,-5.244855E-2,1.9794808E-1,-4.0752936E-2],"split_indices":[111417,1,2,86821,1,0,53031,0,0,0,1,0,1,0,94461,40225,2,22397,76600,35175,0,2,66567,0,8087,0,10033,0,111420,0,2,0,59931,0,60821,0,2,111421,0,0,84997,0,85301,0,0,0,0,0,0,0,0,0,0,0,0,0,0,0,0,0,0,0,0],"split_type":[0,0,0,0,0,0,0,0,0,0,0,0,0,0,0,0,0,0,0,0,0,0,0,0,0,0,0,0,0,0,0,0,0,0,0,0,0,0,0,0,0,0,0,0,0,0,0,0,0,0,0,0,0,0,0,0,0,0,0,0,0,0,0],"sum_hessian":[5.4769734E4,1.1820251E4,4.2949484E4,4.501471E3,7.3187793E3,3.9534965E4,3.4145195E3,4.672565E1,4.4547456E3,7.448944E1,7.24429E3,3.772437E4,1.8105945E3,4.1126064E1,3.3733933E3,4.0391583E2,4.0508298E3,6.179045E3,1.0652451E3,3.425762E4,3.46675E3,9.560013E1,1.7149944E3,3.6165672E1,3.3372278E3,2.9248608E1,3.746672E2,3.8382441E3,2.1258557E2,4.1244152E1,6.137801E3,3.9874577E1,1.0253706E3,4.5E1,3.421262E4,6.825E1,3.3985E3,8.7415825E1,8.184305E0,3.6413197E1,1.6785812E3,2.948329E1,3.3077444E3,1.34407425E1,3.6122647E2,1.436419E3,2.4018252E3,4.721323E1,1.6537234E2,2.1047017E2,5.9273306E3,3.364484E1,9.917257E2,4.275E1,3.416987E4,2.60975E3,7.8875E2,4.7177324E0,8.269809E1,2.6726997E1,1.6518541E3,2.8483717E1,3.2792607E3],"tree_param":{"num_deleted":"0","num_feature":"111427","num_nodes":"63","size_leaf_vector":"1"}},{"base_weights":[1.20682256E-4,1.1878977E-1,-3.2524128E-2,-2.1850323E-2,2.0531102E-1,-1.1828171E-2,-3.0018145E-1,1.7460439E-1,-4.057763E-2,1.7792812E-1,1.8905942E-1,3.3780818E-3,-3.2991242E-1,1.9848351E-1,-3.2155395E-1,1.903369E-1,-5.662806E-2,2.5142345E-1,-1.7307258E-1,1.9339749E-1,1.1549996E-3,9.420464E-1,-3.999175E-1,1.624429E-1,-3.4736505E-1,1.893964E-1,-7.151136E-2,1.8740147E-1,2.4088052E-1,2.1588947E-1,-5.609746E-1,1.9323693E-1,-1.0202979E-3,1.1943822E0,-1.5277527E-1,2.0038192E-1,-4.3850014E-1,1.9819485E-1,-3.6903647E-1,1.9239354E-1,-8.638409E-3,1.7398421E-1,2.2941565E-2,1.75431E-3,1.2908797E-1,1.9385259E-1,-6.405466E-2,1.9323693E-1,-3.2003864E-4,-1.4210592E-1,1.358925E-1,1.9995293E-1,-4.7675505E-2,1.7728081E-1,-3.9251048E-2],"categories":[],"categories_nodes":[],"categories_segments":[],"categories_sizes":[],"default_left":[0,0,0,0,0,0,0,0,0,0,0,0,0,0,0,0,0,0,0,0,0,0,0,0,0,0,0,0,0,0,0,0,0,0,0,0,0,0,0,0,0,0,0,0,0,0,0,0,0,0,0,0,0,0,0],"id":2,"left_children":[1,3,5,7,9,11,13,-1,15,-1,17,19,21,-1,23,-1,25,27,29,-1,31,33,35,-1,37,-1,39,-1,41,43,45,-1,47,49,-1,-1,51,-1,53,-1,-1,-1,-1,-1,-1,-1,-1,-1,-1,-1,-1,-1,-1,-1,-1],"loss_changes":[2.1208797E2,1.437292E2,2.3783798E2,1.4904358E2,1.8671994E2,1.927771E2,1.5113351E2,0E0,1.3905986E2,0E0,1.6353195E2,1.6325267E2,1.6229399E2,0E0,1.5395627E2,0E0,1.283934E2,1.05200806E2,1.6067378E2,0E0,1.5961926E2,6.1128433E1,1.6078952E2,0E0,1.5291531E2,0E0,1.3031601E2,0E0,1.0507242E2,1.1342195E2,1.0726242E2,0E0,1.5997925E2,3.932763E1,0E0,0E0,1.5930392E2,0E0,1.5091614E2,0E0,0E0,0E0,0E0,0E0,0E0,0E0,0E0,0E0,0E0,0E0,0E0,0E0,0E0,0E0,0E0],"parents":[2147483647,0,0,1,1,2,2,3,3,4,4,5,5,6,6,8,8,10,10,11,11,12,12,14,14,16,16,17,17,18,18,20,20,21,21,22,22,24,24,26,26,28,28,29,29,30,30,32,32,33,33,36,36,38,38],"right_children":[2,4,6,8,10,12,14,-1,16,-1,18,20,22,-1,24,-1,26,28,30,-1,32,34,36,-1,38,-1,40,-1,42,44,46,-1,48,50,-1,-1,52,-1,54,-1,-1,-1,-1,-1,-1,-1,-1,-1,-1,-1,-1,-1,-1,-1,-1],"split_conditions":[2.00001E0,-3.3894625E-1,1.441762E0,2.00001E0,-2.4785867E-1,1.8036802E0,2.00001E0,1.7460439E-1,2.00001E0,1.7792812E-1,1.3758274E0,2.00001E0,-1.6395897E0,1.9848351E-1,2.00001E0,1.903369E-1,2.00001E0,2.00001E0,2.00001E0,1.9339749E-1,2.00001E0,-5.9007347E-4,2.00001E0,1.624429E-1,2.00001E0,1.893964E-1,2.00001E0,1.8740147E-1,2.00001E0,1.7490747E0,2.00001E0,1.9323693E-1,2.00001E0,2.00001E0,-1.5277527E-1,2.0038192E-1,2.00001E0,1.9819485E-1,2.00001E0,1.9239354E-1,-8.638409E-3,1.7398421E-1,2.2941565E-2,1.75431E-3,1.2908797E-1,1.9385259E-1,-6.405466E-2,1.9323693E-1,-3.2003864E-4,-1.4210592E-1,1.358925E-1,1.9995293E-1,-4.7675505E-2,1.7728081E-1,-3.9251048E-2],"split_indices":[111417,1,2,86821,1,0,85313,0,36910,0,1,42706,1,0,53031,0,1530,73778,111419,0,56468,2,60653,0,87470,0,25106,0,104188,0,74133,0,100221,111421,0,0,46478,0,53540,0,0,0,0,0,0,0,0,0,0,0,0,0,0,0,0],"split_type":[0,0,0,0,0,0,0,0,0,0,0,0,0,0,0,0,0,0,0,0,0,0,0,0,0,0,0,0,0,0,0,0,0,0,0,0,0,0,0,0,0,0,0,0,0,0,0,0,0,0,0,0,0,0,0],"sum_hessian":[5.4745496E4,1.1810351E4,4.2935145E4,4.498613E3,7.311738E3,3.985453E4,3.0806118E3,4.6187508E1,4.4524253E3,7.361511E1,7.2381226E3,3.803713E4,1.8174038E3,2.7695654E1,3.0529163E3,3.5498016E1,4.4169272E3,6.1750083E3,1.0631143E3,4.2749928E1,3.799438E4,9.415715E1,1.7232466E3,3.915242E1,3.0137637E3,3.2490555E1,4.3844365E3,3.8722645E1,6.1362856E3,5.310532E2,5.3206104E2,4.174993E1,3.795263E4,8.589753E1,8.25962E0,2.6418375E1,1.6968282E3,2.6947123E1,2.9868167E3,3.148726E1,4.352949E3,4.5433025E1,6.090853E3,4.491896E2,8.186363E1,1.569488E1,5.1636615E2,4.174993E1,3.791088E4,4.632149E0,8.126538E1,2.5421455E1,1.6714067E3,3.1571869E1,2.9552449E3],"tree_param":{"num_deleted":"0","num_feature":"111427","num_nodes":"55","size_leaf_vector":"1"}},{"base_weights":[1.7468148E-4,1.9645248E-1,-1.6621046E-3,1.96896E-1,-3.2850073E-3,1.9741836E-1,-4.9055037E-3,1.0406886E-1,-3.4891453E-2,8.5265726E-2,7.1196896E-1,-4.277047E-3,-2.4453829E-1,2.0147806E-2,-6.774528E-4,8.753174E-2,-1.4944981E-1,4.3982896E-4,-5.2097857E-2,1.9377302E-1,-2.6162598E-2],"categories":[],"categories_nodes":[],"categories_segments":[],"categories_sizes":[],"default_left":[0,0,0,0,0,0,0,0,0,0,1,0,0,0,0,0,0,0,0,0,0],"id":3,"left_children":[1,-1,3,-1,5,-1,7,9,11,13,15,17,19,-1,-1,-1,-1,-1,-1,-1,-1],"loss_changes":[1.9742764E2,0E0,1.7483858E2,0E0,1.7504814E2,0E0,1.7835236E2,1.3456454E2,2.7471448E2,1.2221164E2,1.2862259E2,1.6742392E2,2.0388373E2,0E0,0E0,0E0,0E0,0E0,0E0,0E0,0E0],"parents":[2147483647,0,0,2,2,4,4,6,6,7,7,8,8,9,9,10,10,11,11,12,12],"right_children":[2,-1,4,-1,6,-1,8,10,12,14,16,18,20,-1,-1,-1,-1,-1,-1,-1,-1],"split_conditions":[1E0,1.9645248E-1,2.00001E0,1.96896E-1,2.00001E0,1.9741836E-1,2.00001E0,2.3497353E0,1.2419227E0,2.00001E0,1E0,2.3497353E0,2.00001E0,2.0147806E-2,-6.774528E-4,8.753174E-2,-1.4944981E-1,4.3982896E-4,-5.2097857E-2,1.9377302E-1,-2.6162598E-2],"split_indices":[111422,0,17409,0,37354,0,111417,0,2,111419,111420,0,58011,0,0,0,0,0,0,0,0],"split_type":[0,0,0,0,0,0,0,0,0,0,0,0,0,0,0,0,0,0,0,0,0],"sum_hessian":[5.471613E4,5.0116867E1,5.466601E4,4.398555E1,5.4622023E4,4.372832E1,5.4578297E4,1.1776802E4,4.2801496E4,1.1424565E4,3.5223615E2,3.7348562E4,5.452933E3,5.048727E3,6.375838E3,3.2851865E2,2.371749E1,3.6732816E4,6.1574664E2,4.1492786E1,5.4114404E3],"tree_param":{"num_deleted":"0","num_feature":"111427","num_nodes":"21","size_leaf_vector":"1"}},{"base_weights":[1.7051699E-4,1.9512345E-1,-1.3720375E-3,1.7894511E-1,-3.0323847E-3,1.954522E-1,-4.5299646E-3,1.787099E-1,-6.165998E-3,1.9248345E-1,-7.663102E-3,1.9312754E-1,-9.1409945E-4],"categories":[],"categories_nodes":[],"categories_segments":[],"categories_sizes":[],"default_left":[0,0,0,0,0,0,0,0,0,0,0,0,0],"id":4,"left_children":[1,-1,3,-1,5,-1,7,-1,9,-1,11,-1,-1],"loss_changes":[1.6464044E2,0E0,1.6253554E2,0E0,1.6010892E2,0E0,1.599682E2,0E0,1.5763402E2,0E0,1.5613576E2,0E0,0E0],"parents":[2147483647,0,0,2,2,4,4,6,6,8,8,10,10],"right_children":[2,-1,4,-1,6,-1,8,-1,10,-1,12,-1,-1],"split_conditions":[2.00001E0,1.9512345E-1,1E0,1.7894511E-1,2.00001E0,1.954522E-1,2.00001E0,1.787099E-1,2.00001E0,1.9248345E-1,2.00001E0,1.9312754E-1,-9.1409945E-4],"split_indices":[80433,0,111422,0,81516,0,11407,0,109930,0,18247,0,0],"split_type":[0,0,0,0,0,0,0,0,0,0,0,0,0],"sum_hessian":[5.4702797E4,4.221657E1,5.4660582E4,4.9633797E1,5.461095E4,4.0749935E1,5.45702E4,4.8789898E1,5.4521406E4,4.1242416E1,5.4480164E4,4.049957E1,5.4439664E4],"tree_param":{"num_deleted":"0","num_feature":"111427","num_nodes":"13","size_leaf_vector":"1"}},{"base_weights":[1.7961473E-4,1.9366129E-1,-1.2807015E-3,1.7688563E-1,-2.8789258E-3,1.9294405E-1,-4.3394146E-3,9.70846E-2,-3.229794E-2,1.7239837E-1,9.08322E-2,1.7866349E-1,-3.4342933E-2,1.8753062E-1,8.5271215E-3,1.9444636E-1,-3.6219277E-3],"categories":[],"categories_nodes":[],"categories_segments":[],"categories_sizes":[],"default_left":[0,0,0,0,0,0,0,0,0,0,0,0,0,0,0,0,0],"id":5,"left_children":[1,-1,3,-1,5,-1,7,9,11,-1,13,-1,15,-1,-1,-1,-1],"loss_changes":[1.54683E2,0E0,1.5464139E2,0E0,1.5412871E2,0E0,1.547485E2,1.1979819E2,1.5918843E2,0E0,1.1642594E2,0E0,1.5873239E2,0E0,0E0,0E0,0E0],"parents":[2147483647,0,0,2,2,4,4,6,6,7,7,8,8,10,10,12,12],"right_children":[2,-1,4,-1,6,-1,8,10,12,-1,14,-1,16,-1,-1,-1,-1],"split_conditions":[2.00001E0,1.9366129E-1,2.00001E0,1.7688563E-1,2.00001E0,1.9294405E-1,2.00001E0,2.00001E0,2.00001E0,1.7239837E-1,2.00001E0,1.7866349E-1,2.00001E0,1.8753062E-1,8.5271215E-3,1.9444636E-1,-3.6219277E-3],"split_indices":[19936,0,28853,0,37950,0,111417,8059,44088,0,89281,0,60838,0,0,0,0],"split_type":[0,0,0,0,0,0,0,0,0,0,0,0,0,0,0,0,0],"sum_hessian":[5.4698867E4,4.022021E1,5.4658645E4,4.83083E1,5.4610336E4,4.0247498E1,5.457009E4,1.1791622E4,4.277847E4,4.4091545E1,1.1747531E4,4.7061043E1,4.2731406E4,3.5450783E1,1.171208E4,3.94996E1,4.2691906E4],"tree_param":{"num_deleted":"0","num_feature":"111427","num_nodes":"17","size_leaf_vector":"1"}},{"base_weights":[1.9296135E-4,1.9337003E-1,-1.2575764E-3,-5.744366E-1,5.0097657E-3,-1.6956076E-1,-1.4502622E0,1.9110654E-1,3.536571E-3,1.899648E-1,-3.2223326E-1,1.4335977E-1,-1.4971745E0,1.9565515E-1,2.0983857E-3,1.9283353E-1,-4.8349467E-1,1.3660467E-1,-1.5319597E0,1.9313572E-1,6.409885E-4,1.858546E-1,-6.237773E-2,1.277204E-1,-1.5662234E-1,1.9327949E-1,-8.107577E-5],"categories":[],"categories_nodes":[],"categories_segments":[],"categories_sizes":[],"default_left":[0,0,0,0,0,0,0,0,0,0,0,0,0,0,0,0,0,0,0,0,0,0,0,0,0,0,0],"id":6,"left_children":[1,-1,3,5,7,9,11,-1,13,-1,15,-1,17,-1,19,-1,21,-1,23,-1,25,-1,-1,-1,-1,-1,-1],"loss_changes":[1.5338963E2,0E0,1.9632544E2,2.0936436E2,1.5179517E2,1.2867485E2,2.7410187E1,0E0,1.5172693E2,0E0,1.3825627E2,0E0,2.0442719E1,0E0,1.5177747E2,0E0,1.174245E2,0E0,1.9566437E1,0E0,1.5130714E2,0E0,0E0,0E0,0E0,0E0,0E0],"parents":[2147483647,0,0,2,2,3,3,4,4,5,5,6,6,8,8,10,10,12,12,14,14,16,16,18,18,20,20],"right_children":[2,-1,4,6,8,10,12,-1,14,-1,16,-1,18,-1,20,-1,22,-1,24,-1,26,-1,-1,-1,-1,-1,-1],"split_conditions":[2.00001E0,1.9337003E-1,-1.6787863E0,1.1090941E-1,2.00001E0,2.00001E0,2.00001E0,1.9110654E-1,2.00001E0,1.899648E-1,2.00001E0,1.4335977E-1,2.00001E0,1.9565515E-1,2.00001E0,1.9283353E-1,2.00001E0,1.3660467E-1,2.00001E0,1.9313572E-1,2.00001E0,1.858546E-1,-6.237773E-2,1.277204E-1,-1.5662234E-1,1.9327949E-1,-8.107577E-5],"split_indices":[21641,0,2,0,86513,58804,63337,0,85678,0,24344,0,109554,0,17414,0,27428,0,64578,0,110568,0,0,0,0,0,0],"split_type":[0,0,0,0,0,0,0,0,0,0,0,0,0,0,0,0,0,0,0,0,0,0,0,0,0,0,0],"sum_hessian":[5.4689797E4,3.9999508E1,5.4649797E4,5.901164E2,5.4059684E4,4.0437564E2,1.8574078E2,4.07495E1,5.4018934E4,2.6999668E1,3.7737598E2,2.4999692E0,1.8324081E2,3.8749523E1,5.3980184E4,2.4499699E1,3.5287625E2,1.740094E0,1.8150072E2,3.974725E1,5.3940434E4,1.9249763E1,3.336265E2,1.7499785E0,1.7975075E2,3.9499516E1,5.3900938E4],"tree_param":{"num_deleted":"0","num_feature":"111427","num_nodes":"27","size_leaf_vector":"1"}},{"base_weights":[2.0607196E-4,1.9557208E-1,-1.2070189E-3,1.9325815E-1,-2.6322904E-3,1.9319461E-1,-4.0502767E-3,1.9321556E-1,-5.461552E-3,1.9309944E-1,-6.865107E-3,1.9554108E-1,-8.2522864E-4],"categories":[],"categories_nodes":[],"categories_segments":[],"categories_sizes":[],"default_left":[0,0,0,0,0,0,0,0,0,0,0,0,0],"id":7,"left_children":[1,-1,3,-1,5,-1,7,-1,9,-1,11,-1,-1],"loss_changes":[1.511194E2,0E0,1.5062524E2,0E0,1.4981161E2,0E0,1.4912425E2,0E0,1.4822504E2,0E0,1.4834706E2,0E0,0E0],"parents":[2147483647,0,0,2,2,4,4,6,6,8,8,10,10],"right_children":[2,-1,4,-1,6,-1,8,-1,10,-1,12,-1,-1],"split_conditions":[2.00001E0,1.9557208E-1,2.00001E0,1.9325815E-1,2.00001E0,1.9319461E-1,2.00001E0,1.9321556E-1,2.00001E0,1.9309944E-1,2.00001E0,1.9554108E-1,-8.2522864E-4],"split_indices":[50725,0,89054,0,26292,0,52009,0,92432,0,79223,0,0],"split_type":[0,0,0,0,0,0,0,0,0,0,0,0,0],"sum_hessian":[5.468577E4,3.8489746E1,5.4647277E4,3.924944E1,5.460803E4,3.8999508E1,5.456903E4,3.874924E1,5.453028E4,3.8499516E1,5.449178E4,3.749923E1,5.445428E4],"tree_param":{"num_deleted":"0","num_feature":"111427","num_nodes":"13","size_leaf_vector":"1"}},{"base_weights":[2.0881486E-4,1.9585726E-1,-1.1617711E-3,1.9308282E-1,-2.5414792E-3,1.7960313E-1,-4.012815E-3,-6.2088747E-2,4.195856E-2,-3.0563137E-2,-4.1578865E-1,1.9889796E-1,1.751477E-2,-5.8270907E-3,1.9362988E-1,7.891411E-4,-8.438658E-2,-4.1257452E-2,3.3150862E-3],"categories":[],"categories_nodes":[],"categories_segments":[],"categories_sizes":[],"default_left":[0,0,0,0,0,0,0,0,0,0,0,0,0,0,0,0,0,0,0],"id":8,"left_children":[1,-1,3,-1,5,-1,7,9,11,13,15,-1,17,-1,-1,-1,-1,-1,-1],"loss_changes":[1.467822E2,0E0,1.4567255E2,0E0,1.4452086E2,0E0,1.4568445E2,2.6882126E2,1.4495205E3,1.2065428E3,3.5783673E2,0E0,2.0230566E2,0E0,0E0,0E0,0E0,0E0,0E0],"parents":[2147483647,0,0,2,2,4,4,6,6,7,7,8,8,9,9,10,10,12,12],"right_children":[2,-1,4,-1,6,-1,8,10,12,14,16,-1,18,-1,-1,-1,-1,-1,-1],"split_conditions":[2.00001E0,1.9585726E-1,2.00001E0,1.9308282E-1,2.00001E0,1.7960313E-1,-2.4143052E-1,-2.4785867E-1,-1.318811E-1,-3.3894625E-1,2.00001E0,1.9889796E-1,-1.5816764E0,-5.8270907E-3,1.9362988E-1,7.891411E-4,-8.438658E-2,-4.1257452E-2,3.3150862E-3],"split_indices":[104944,0,66725,0,17409,0,1,1,1,1,111419,0,2,0,0,0,0,0,0],"split_type":[0,0,0,0,0,0,0,0,0,0,0,0,0,0,0,0,0,0,0],"sum_hessian":[5.4683844E4,3.724572E1,5.4646598E4,3.7999405E1,5.4608598E4,4.3639507E1,5.4564957E4,2.4108361E4,3.0456598E4,2.2136408E4,1.9719528E3,3.7662863E2,3.0079969E4,2.1829855E4,3.0655328E2,9.9155975E2,9.8039307E2,1.0543179E3,2.902565E4],"tree_param":{"num_deleted":"0","num_feature":"111427","num_nodes":"19","size_leaf_vector":"1"}},{"base_weights":[2.166168E-4,1.9590299E-1,-1.136725E-3,1.9264494E-1,-2.5048244E-3,1.7972194E-1,-3.9692917E-3,1.9597818E-1,-5.3109545E-3,1.9632171E-1,-6.646963E-3,1.9296958E-1,-8.0071593E-4],"categories":[],"categories_nodes":[],"categories_segments":[],"categories_sizes":[],"default_left":[0,0,0,0,0,0,0,0,0,0,0,0,0],"id":9,"left_children":[1,-1,3,-1,5,-1,7,-1,9,-1,11,-1,-1],"loss_changes":[1.4493024E2,0E0,1.440807E2,0E0,1.4390195E2,0E0,1.4373936E2,0E0,1.4338898E2,0E0,1.4350587E2,0E0,0E0],"parents":[2147483647,0,0,2,2,4,4,6,6,8,8,10,10],"right_children":[2,-1,4,-1,6,-1,8,-1,10,-1,12,-1,-1],"split_conditions":[2.00001E0,1.9590299E-1,2.00001E0,1.9264494E-1,2.00001E0,1.7972194E-1,2.00001E0,1.9597818E-1,2.00001E0,1.9632171E-1,2.00001E0,1.9296958E-1,-8.0071593E-4],"split_indices":[76635,0,102355,0,37354,0,94836,0,108923,0,79003,0,0],"split_type":[0,0,0,0,0,0,0,0,0,0,0,0,0],"sum_hessian":[5.4669344E4,3.6746174E1,5.4632598E4,3.774985E1,5.4594848E4,4.3391685E1,5.4551453E4,3.6248283E1,5.4515207E4,3.5977543E1,5.4479227E4,3.7247272E1,5.444198E4],"tree_param":{"num_deleted":"0","num_feature":"111427","num_nodes":"13","size_leaf_vector":"1"}},{"base_weights":[2.1909153E-4,7.432018E-3,-3.6024937E-1,1.9268517E-1,6.061109E-3,-7.6921797E-1,1.0529442E-1,1.7646919E-1,4.562625E-3,2.0027791E-1,-8.5728586E-1,-9.3061644E-1,4.5610803E-1,1.9159551E-1,3.1878515E-3,1.9344097E-1,-9.2221093E-1,1.632655E-1,-1.0051011E0,1.3261769E0,9.39502E-2,1.925811E-1,1.82967E-3,1.9246638E-1,-9.8986495E-1,1.5545265E-1,-1.0699514E0,-6.3049746E-1,1.65611E0,8.1135017E-1,-9.2008567E-1,9.945708E-3,-2.5136003E-3,1.8429737E-1,-1.0406271E-1,1.36833E-1,-1.12719975E-1,-9.0552576E-2,3.187139E-2,-1.2276121E-1,1.7310517E-1,-1.2669913E-1,1.14006795E-1,1.759098E-1,-1.23945236E-1],"categories":[],"categories_nodes":[],"categories_segments":[],"categories_sizes":[],"default_left":[0,0,0,0,0,0,0,0,0,0,0,0,0,0,0,0,0,0,0,0,0,0,0,0,0,0,0,0,0,0,0,0,0,0,0,0,0,0,0,0,0,0,0,0,0],"id":10,"left_children":[1,3,5,-1,7,9,11,-1,13,-1,15,17,19,-1,21,-1,23,-1,25,27,29,-1,31,-1,33,-1,35,37,39,41,43,-1,-1,-1,-1,-1,-1,-1,-1,-1,-1,-1,-1,-1,-1],"loss_changes":[1.4214087E2,1.4101917E2,2.0426917E2,0E0,1.4113528E2,1.411214E2,1.8300896E2,0E0,1.406158E2,0E0,1.0222531E2,2.5970604E1,1.1834984E2,0E0,1.3963968E2,0E0,1.06341644E2,0E0,2.232125E1,7.233362E1,1.9465994E2,0E0,1.4068895E2,0E0,7.817737E1,0E0,1.8567627E1,4.637315E0,2.2605957E1,1.0846223E2,9.70831E1,0E0,0E0,0E0,0E0,0E0,0E0,0E0,0E0,0E0,0E0,0E0,0E0,0E0,0E0],"parents":[2147483647,0,0,1,1,2,2,4,4,5,5,6,6,8,8,10,10,11,11,12,12,14,14,16,16,18,18,19,19,20,20,22,22,24,24,26,26,27,27,28,28,29,29,30,30],"right_children":[2,4,6,-1,8,10,12,-1,14,-1,16,18,20,-1,22,-1,24,-1,26,28,30,-1,32,-1,34,-1,36,38,40,42,44,-1,-1,-1,-1,-1,-1,-1,-1,-1,-1,-1,-1,-1,-1],"split_conditions":[1.6344235E0,2.00001E0,1.8125689E-1,1.9268517E-1,2.00001E0,2.00001E0,-3.3894625E-1,1.7646919E-1,2.00001E0,2.0027791E-1,2.00001E0,2.00001E0,3.8393694E-1,1.9159551E-1,2.00001E0,1.9344097E-1,2.00001E0,1.632655E-1,2.00001E0,1.6833341E0,2.00001E0,1.925811E-1,2.00001E0,1.9246638E-1,2.00001E0,1.5545265E-1,2.00001E0,1.2314575E0,2.00001E0,8.20781E-1,2.00001E0,9.945708E-3,-2.5136003E-3,1.8429737E-1,-1.0406271E-1,1.36833E-1,-1.12719975E-1,-9.0552576E-2,3.187139E-2,-1.2276121E-1,1.7310517E-1,-1.2669913E-1,1.14006795E-1,1.759098E-1,-1.23945236E-1],"split_indices":[2,77718,0,0,35175,65733,1,0,32914,0,30435,43990,0,0,22415,0,95546,0,25961,2,111418,0,111417,0,52252,0,57933,1,111423,0,12487,0,0,0,0,0,0,0,0,0,0,0,0,0,0],"split_type":[0,0,0,0,0,0,0,0,0,0,0,0,0,0,0,0,0,0,0,0,0,0,0,0,0,0,0,0,0,0,0,0,0,0,0,0,0,0,0,0,0,0,0,0,0],"sum_hessian":[5.4666855E4,5.35954E4,1.0714575E3,3.7249725E1,5.355815E4,5.700396E2,5.0141788E2,4.4594917E1,5.3513555E4,1.688335E1,5.5315625E2,1.264306E2,3.7498727E2,3.746114E1,5.3476094E4,1.1917659E1,5.412386E2,2.9794147E0,1.2345119E2,1.0942837E2,2.655589E2,3.674973E1,5.3439344E4,1.192644E1,5.2931213E2,2.4828455E0,1.2096834E2,1.5657903E1,9.377046E1,1.5564478E2,1.0991413E2,1.1565291E4,4.187405E4,8.6963625E0,5.206158E2,2.2496836E0,1.1871866E2,1.21760025E1,3.4819005E0,1.9855698E0,9.17849E1,2.0865677E1,1.347791E2,1.1226485E1,9.8687645E1],"tree_param":{"num_deleted":"0","num_feature":"111427","num_nodes":"45","size_leaf_vector":"1"}},{"base_weights":[2.2555076E-4,1.9196789E-1,-1.1092867E-3,1.9362082E-1,-2.4313238E-3,1.929425E-1,-3.7589103E-3,1.9191225E-1,-5.0899293E-3,1.9272043E-1,-6.4111887E-3,1.7850216E-1,-7.838413E-4],"categories":[],"categories_nodes":[],"categories_segments":[],"categories_sizes":[],"default_left":[0,0,0,0,0,0,0,0,0,0,0,0,0],"id":11,"left_children":[1,-1,3,-1,5,-1,7,-1,9,-1,11,-1,-1],"loss_changes":[1.4003636E2,0E0,1.3989214E2,0E0,1.3999295E2,0E0,1.3961197E2,0E0,1.3917554E2,0E0,1.3928696E2,0E0,0E0],"parents":[2147483647,0,0,2,2,4,4,6,6,8,8,10,10],"right_children":[2,-1,4,-1,6,-1,8,-1,10,-1,12,-1,-1],"split_conditions":[2.00001E0,1.9196789E-1,2.00001E0,1.9362082E-1,2.00001E0,1.929425E-1,2.00001E0,1.9191225E-1,2.00001E0,1.9272043E-1,2.00001E0,1.7850216E-1,-7.838413E-4],"split_indices":[55790,0,9979,0,57375,0,9091,0,23998,0,60821,0,0],"split_type":[0,0,0,0,0,0,0,0,0,0,0,0,0],"sum_hessian":[5.4653793E4,3.698252E1,5.4616812E4,3.624736E1,5.4580562E4,3.6485058E1,5.454408E4,3.6732643E1,5.4507344E4,3.624943E1,5.4471098E4,4.2367435E1,5.442873E4],"tree_param":{"num_deleted":"0","num_feature":"111427","num_nodes":"13","size_leaf_vector":"1"}},{"base_weights":[2.2713761E-4,1.9533315E-1,-1.069145E-3,1.7833446E-1,-2.4896187E-3,1.9363253E-1,-3.7958962E-3,1.9529466E-1,-5.088242E-3,1.9529466E-1,-6.382248E-3,1.7733528E-1,-7.801998E-4],"categories":[],"categories_nodes":[],"categories_segments":[],"categories_sizes":[],"default_left":[0,0,0,0,0,0,0,0,0,0,0,0,0],"id":12,"left_children":[1,-1,3,-1,5,-1,7,-1,9,-1,11,-1,-1],"loss_changes":[1.3836906E2,0E0,1.3844261E2,0E0,1.3822427E2,0E0,1.3792676E2,0E0,1.3810904E2,0E0,1.3764424E2,0E0,0E0],"parents":[2147483647,0,0,2,2,4,4,6,6,8,8,10,10],"right_children":[2,-1,4,-1,6,-1,8,-1,10,-1,12,-1,-1],"split_conditions":[2.00001E0,1.9533315E-1,2.00001E0,1.7833446E-1,2.00001E0,1.9363253E-1,2.00001E0,1.9529466E-1,2.00001E0,1.9529466E-1,2.00001E0,1.7733528E-1,-7.801998E-4],"split_indices":[29238,0,58011,0,44083,0,19664,0,100530,0,42706,0,0],"split_type":[0,0,0,0,0,0,0,0,0,0,0,0,0],"sum_hessian":[5.4651156E4,3.524933E1,5.4615906E4,4.244433E1,5.457346E4,3.5746773E1,5.4537715E4,3.4999336E1,5.4502715E4,3.4999336E1,5.446772E4,4.242114E1,5.4425297E4],"tree_param":{"num_deleted":"0","num_feature":"111427","num_nodes":"13","size_leaf_vector":"1"}},{"base_weights":[2.2938548E-4,1.783718E-1,-1.173372E-3,1.962126E-1,-2.4503842E-3,1.6624759E-1,-3.9586946E-3,1.9605121E-1,-5.238294E-3,1.9327195E-1,-6.537018E-3,1.9432728E-1,-7.826577E-4],"categories":[],"categories_nodes":[],"categories_segments":[],"categories_sizes":[],"default_left":[0,0,0,0,0,0,0,0,0,0,0,0,0],"id":13,"left_children":[1,-1,3,-1,5,-1,7,-1,9,-1,11,-1,-1],"loss_changes":[1.3672314E2,0E0,1.3691335E2,0E0,1.3705067E2,0E0,1.3706966E2,0E0,1.3715622E2,0E0,1.3693451E2,0E0,0E0],"parents":[2147483647,0,0,2,2,4,4,6,6,8,8,10,10],"right_children":[2,-1,4,-1,6,-1,8,-1,10,-1,12,-1,-1],"split_conditions":[2.00001E0,1.783718E-1,2.00001E0,1.962126E-1,1E0,1.6624759E-1,2.00001E0,1.9605121E-1,2.00001E0,1.9327195E-1,2.00001E0,1.9432728E-1,-7.826577E-4],"split_indices":[80433,0,4427,0,111422,0,97051,0,79904,0,93127,0,0],"split_type":[0,0,0,0,0,0,0,0,0,0,0,0,0],"sum_hessian":[5.4648035E4,4.194968E1,5.4606082E4,3.44969E1,5.4571586E4,4.8396694E1,5.452319E4,3.4495026E1,5.4488695E4,3.5495224E1,5.44532E4,3.4994946E1,5.4418203E4],"tree_param":{"num_deleted":"0","num_feature":"111427","num_nodes":"13","size_leaf_vector":"1"}},{"base_weights":[2.3206629E-4,1.9536936E-1,-1.0377648E-3,1.924078E-1,-2.3250047E-3,1.9280902E-1,-3.607915E-3,1.9272785E-1,-4.8920107E-3,1.9272785E-1,-6.1777676E-3,1.9272785E-1,-7.46519E-4],"categories":[],"categories_nodes":[],"categories_segments":[],"categories_sizes":[],"default_left":[0,0,0,0,0,0,0,0,0,0,0,0,0],"id":14,"left_children":[1,-1,3,-1,5,-1,7,-1,9,-1,11,-1,-1],"loss_changes":[1.3555302E2,0E0,1.3533444E2,0E0,1.3516513E2,0E0,1.3523808E2,0E0,1.3541805E2,0E0,1.3559839E2,0E0,0E0],"parents":[2147483647,0,0,2,2,4,4,6,6,8,8,10,10],"right_children":[2,-1,4,-1,6,-1,8,-1,10,-1,12,-1,-1],"split_conditions":[2.00001E0,1.9536936E-1,2.00001E0,1.924078E-1,2.00001E0,1.9280902E-1,2.00001E0,1.9272785E-1,2.00001E0,1.9272785E-1,2.00001E0,1.9272785E-1,-7.46519E-4],"split_indices":[35572,0,15828,0,37555,0,40369,0,67209,0,81818,0,0],"split_type":[0,0,0,0,0,0,0,0,0,0,0,0,0],"sum_hessian":[5.4644184E4,3.4499092E1,5.4609688E4,3.549256E1,5.4574195E4,3.5247223E1,5.4538945E4,3.5249073E1,5.4503695E4,3.5249073E1,5.446845E4,3.5249073E1,5.44332E4],"tree_param":{"num_deleted":"0","num_feature":"111427","num_nodes":"13","size_leaf_vector":"1"}},{"base_weights":[2.319834E-4,1.9540249E-1,-1.0291494E-3,1.9667748E-1,-2.281758E-3,1.9366384E-1,-3.552487E-3,1.6593657E-1,-5.036892E-3,1.7738631E-1,-6.4232145E-3,1.9352752E-1,-7.6896744E-4],"categories":[],"categories_nodes":[],"categories_segments":[],"categories_sizes":[],"default_left":[0,0,0,0,0,0,0,0,0,0,0,0,0],"id":15,"left_children":[1,-1,3,-1,5,-1,7,-1,9,-1,11,-1,-1],"loss_changes":[1.3464293E2,0E0,1.3460995E2,0E0,1.3447205E2,0E0,1.3463893E2,0E0,1.3439822E2,0E0,1.3391586E2,0E0,0E0],"parents":[2147483647,0,0,2,2,4,4,6,6,8,8,10,10],"right_children":[2,-1,4,-1,6,-1,8,-1,10,-1,12,-1,-1],"split_conditions":[2.00001E0,1.9540249E-1,2.00001E0,1.9667748E-1,2.00001E0,1.9366384E-1,2.00001E0,1.6593657E-1,2.00001E0,1.7738631E-1,2.00001E0,1.9352752E-1,-7.6896744E-4],"split_indices":[25912,0,49585,0,17571,0,11407,0,100221,0,51380,0,0],"split_type":[0,0,0,0,0,0,0,0,0,0,0,0,0],"sum_hessian":[5.4642406E4,3.4248962E1,5.4608156E4,3.3740593E1,5.4574418E4,3.4746025E1,5.453967E4,4.764537E1,5.4492027E4,4.1437748E1,5.445059E4,3.4496494E1,5.4416094E4],"tree_param":{"num_deleted":"0","num_feature":"111427","num_nodes":"13","size_leaf_vector":"1"}},{"base_weights":[2.3431423E-4,1.9360374E-1,-1.0240631E-3,1.9358274E-1,-2.2838968E-3,1.9276057E-1,-3.5489148E-3,1.9539593E-1,-4.7968933E-3,1.7872208E-1,-6.1591966E-3,1.7998952E-1,-7.5132924E-4],"categories":[],"categories_nodes":[],"categories_segments":[],"categories_sizes":[],"default_left":[0,0,0,0,0,0,0,0,0,0,0,0,0],"id":16,"left_children":[1,-1,3,-1,5,-1,7,-1,9,-1,11,-1,-1],"loss_changes":[1.3310263E2,0E0,1.3324713E2,0E0,1.3323274E2,0E0,1.3323674E2,0E0,1.3306566E2,0E0,1.3320366E2,0E0,0E0],"parents":[2147483647,0,0,2,2,4,4,6,6,8,8,10,10],"right_children":[2,-1,4,-1,6,-1,8,-1,10,-1,12,-1,-1],"split_conditions":[2.00001E0,1.9360374E-1,2.00001E0,1.9358274E-1,2.00001E0,1.9276057E-1,2.00001E0,1.9539593E-1,2.00001E0,1.7872208E-1,2.00001E0,1.7998952E-1,-7.5132924E-4],"split_indices":[85492,0,1941,0,4430,0,41898,0,81516,0,21641,0,0],"split_type":[0,0,0,0,0,0,0,0,0,0,0,0,0],"sum_hessian":[5.4638684E4,3.4496223E1,5.4604188E4,3.449628E1,5.456969E4,3.474879E1,5.453494E4,3.374883E1,5.4501195E4,4.0404877E1,5.446079E4,3.9806484E1,5.442098E4],"tree_param":{"num_deleted":"0","num_feature":"111427","num_nodes":"13","size_leaf_vector":"1"}},{"base_weights":[2.3541969E-4,1.9300489E-1,-1.0187628E-3,1.7650676E-1,-2.3908743E-3,1.9277512E-1,-3.6474215E-3,1.9335684E-1,-4.900223E-3,1.7689382E-1,-6.2655765E-3,1.9803327E-1,-7.4847304E-4],"categories":[],"categories_nodes":[],"categories_segments":[],"categories_sizes":[],"default_left":[0,0,0,0,0,0,0,0,0,0,0,0,0],"id":17,"left_children":[1,-1,3,-1,5,-1,7,-1,9,-1,11,-1,-1],"loss_changes":[1.3224156E2,0E0,1.3232028E2,0E0,1.3233446E2,0E0,1.3234227E2,0E0,1.3198663E2,0E0,1.3189415E2,0E0,0E0],"parents":[2147483647,0,0,2,2,4,4,6,6,8,8,10,10],"right_children":[2,-1,4,-1,6,-1,8,-1,10,-1,12,-1,-1],"split_conditions":[2.00001E0,1.9300489E-1,2.00001E0,1.7650676E-1,2.00001E0,1.9277512E-1,2.00001E0,1.9335684E-1,2.00001E0,1.7689382E-1,2.00001E0,1.9803327E-1,-7.4847304E-4],"split_indices":[10229,0,56468,0,84121,0,111276,0,109930,0,94060,0,0],"split_type":[0,0,0,0,0,0,0,0,0,0,0,0,0],"sum_hessian":[5.4635816E4,3.448584E1,5.4601332E4,4.139018E1,5.455994E4,3.4498646E1,5.452544E4,3.4242107E1,5.44912E4,4.091484E1,5.4450285E4,3.2399437E1,5.4417887E4],"tree_param":{"num_deleted":"0","num_feature":"111427","num_nodes":"13","size_leaf_vector":"1"}},{"base_weights":[2.361454E-4,1.9101457E-1,-1.0142601E-3,1.9356877E-1,-2.247479E-3,-3.2822087E-1,5.3361985E-3,1.9480973E-1,-3.8382196E-1,1.9356877E-1,4.0775347E-3,1.6575848E-1,-4.5007724E-1,1.9272749E-1,2.8136317E-3,1.9214405E-1,-5.085975E-2,1.9272749E-1,1.548114E-4],"categories":[],"categories_nodes":[],"categories_segments":[],"categories_sizes":[],"default_left":[0,0,0,0,0,0,0,0,0,0,0,0,0,0,0,0,0,0,0],"id":18,"left_children":[1,-1,3,-1,5,7,9,-1,11,-1,13,-1,15,-1,17,-1,-1,-1,-1],"loss_changes":[1.3047664E2,0E0,1.3040787E2,0E0,1.3489178E2,1.5776572E2,1.2955602E2,0E0,1.6465475E2,0E0,1.295336E2,0E0,1.6398357E2,0E0,1.2970398E2,0E0,0E0,0E0,0E0],"parents":[2147483647,0,0,2,2,4,4,5,5,6,6,8,8,10,10,12,12,14,14],"right_children":[2,-1,4,-1,6,8,10,-1,12,-1,14,-1,16,-1,18,-1,-1,-1,-1],"split_conditions":[2.00001E0,1.9101457E-1,2.00001E0,1.9356877E-1,-1.6335465E0,2.00001E0,2.00001E0,1.9480973E-1,2.00001E0,1.9356877E-1,2.00001E0,1.6575848E-1,2.00001E0,1.9272749E-1,2.00001E0,1.9214405E-1,-5.085975E-2,1.9272749E-1,1.548114E-4],"split_indices":[102329,0,21714,0,2,84650,59560,0,21641,0,69975,0,71758,0,76453,0,0,0,0],"split_type":[0,0,0,0,0,0,0,0,0,0,0,0,0,0,0,0,0,0,0],"sum_hessian":[5.4632953E4,3.474563E1,5.459821E4,3.3745754E1,5.4564465E4,1.2396039E3,5.332486E4,2.8744919E1,1.210859E3,3.3745754E1,5.3291113E4,3.730885E1,1.1735502E3,3.3998497E1,5.3257117E4,2.7494867E1,1.1460553E3,3.3998497E1,5.3223117E4],"tree_param":{"num_deleted":"0","num_feature":"111427","num_nodes":"19","size_leaf_vector":"1"}},{"base_weights":[2.4166903E-4,1.6405186E-1,-1.2065292E-3,1.968192E-1,-2.4143145E-3,1.9349037E-1,-3.6401562E-3,1.657833E-1,-5.072174E-3,1.9265032E-1,-6.305089E-3,8.717111E-3,-3.2115157E-3],"categories":[],"categories_nodes":[],"categories_segments":[],"categories_sizes":[],"default_left":[0,0,0,0,0,0,0,0,0,0,0,0,0],"id":19,"left_children":[1,-1,3,-1,5,-1,7,-1,9,-1,11,-1,-1],"loss_changes":[1.2976866E2,0E0,1.2983206E2,0E0,1.2955176E2,0E0,1.2971417E2,0E0,1.2972897E2,0E0,1.3133536E2,0E0,0E0],"parents":[2147483647,0,0,2,2,4,4,6,6,8,8,10,10],"right_children":[2,-1,4,-1,6,-1,8,-1,10,-1,12,-1,-1],"split_conditions":[2.00001E0,1.6405186E-1,2.00001E0,1.968192E-1,2.00001E0,1.9349037E-1,2.00001E0,1.657833E-1,2.00001E0,1.9265032E-1,2.00001E0,8.717111E-3,-3.2115157E-3],"split_indices":[28853,0,89713,0,39670,0,44088,0,74610,0,111417,0,0],"split_type":[0,0,0,0,0,0,0,0,0,0,0,0,0],"sum_hessian":[5.462734E4,4.7189472E1,5.458015E4,3.245403E1,5.4547695E4,3.3495846E1,5.45142E4,4.5949036E1,5.446825E4,3.3748547E1,5.44345E4,1.1777522E4,4.2656977E4],"tree_param":{"num_deleted":"0","num_feature":"111427","num_nodes":"13","size_leaf_vector":"1"}},{"base_weights":[2.3981718E-4,1.929453E-1,-9.882635E-4,1.7692606E-1,-2.3248997E-3,1.9255753E-1,-3.5535423E-3,1.7723851E-1,-4.88856E-3,1.9374539E-1,-6.1102924E-3,1.952068E-1,-7.324045E-4],"categories":[],"categories_nodes":[],"categories_segments":[],"categories_sizes":[],"default_left":[0,0,0,0,0,0,0,0,0,0,0,0,0],"id":20,"left_children":[1,-1,3,-1,5,-1,7,-1,9,-1,11,-1,-1],"loss_changes":[1.2940884E2,0E0,1.2916455E2,0E0,1.2920973E2,0E0,1.2925208E2,0E0,1.2927563E2,0E0,1.2940175E2,0E0,0E0],"parents":[2147483647,0,0,2,2,4,4,6,6,8,8,10,10],"right_children":[2,-1,4,-1,6,-1,8,-1,10,-1,12,-1,-1],"split_conditions":[2.00001E0,1.929453E-1,2.00001E0,1.7692606E-1,2.00001E0,1.9255753E-1,2.00001E0,1.7723851E-1,2.00001E0,1.9374539E-1,2.00001E0,1.952068E-1,-7.324045E-4],"split_indices":[4954,0,18247,0,80801,0,37950,0,64368,0,90819,0,0],"split_type":[0,0,0,0,0,0,0,0,0,0,0,0,0],"sum_hessian":[5.4618844E4,3.3747787E1,5.4585094E4,4.0185753E1,5.454491E4,3.3741577E1,5.4511168E4,3.9950138E1,5.447122E4,3.32446E1,5.4437973E4,3.272615E1,5.4405246E4],"tree_param":{"num_deleted":"0","num_feature":"111427","num_nodes":"13","size_leaf_vector":"1"}},{"base_weights":[2.4026781E-4,1.9297601E-1,-9.79222E-4,1.771724E-1,-2.3088958E-3,1.8889521E-1,-3.5574818E-3,1.7769542E-1,-4.880501E-3,2.2205878E-2,-9.398125E-2,1.7712568E-1,2.0478796E-3,-1.0964594E-2,7.8590155E-2],"categories":[],"categories_nodes":[],"categories_segments":[],"categories_sizes":[],"default_left":[0,0,0,0,0,0,0,0,1,0,0,0,0,0,0],"id":21,"left_children":[1,-1,3,-1,5,-1,7,-1,9,11,13,-1,-1,-1,-1],"loss_changes":[1.285172E2,0E0,1.2866367E2,0E0,1.2880595E2,0E0,1.2841179E2,0E0,1.3145866E2,1.2614564E2,1.7510939E2,0E0,0E0,0E0,0E0],"parents":[2147483647,0,0,2,2,4,4,6,6,8,8,9,9,10,10],"right_children":[2,-1,4,-1,6,-1,8,-1,10,12,14,-1,-1,-1,-1],"split_conditions":[2.00001E0,1.9297601E-1,2.00001E0,1.771724E-1,2.00001E0,1.8889521E-1,2.00001E0,1.7769542E-1,1E0,2.00001E0,2.6773684E0,1.7712568E-1,2.0478796E-3,-1.0964594E-2,7.8590155E-2],"split_indices":[81139,0,19936,0,20664,0,17414,0,111421,86513,0,0,0,0,0],"split_type":[0,0,0,0,0,0,0,0,0,0,0,0,0,0,0],"sum_hessian":[5.461595E4,3.349756E1,5.4582453E4,3.9912716E1,5.454254E4,3.498706E1,5.450755E4,3.9475544E1,5.446808E4,4.1770664E4,1.2697414E4,4.0194603E1,4.173047E4,1.2476174E4,2.2123965E2],"tree_param":{"num_deleted":"0","num_feature":"111427","num_nodes":"15","size_leaf_vector":"1"}},{"base_weights":[2.3880183E-4,1.9453393E-1,-9.7237166E-4,2.0030475E-1,-2.1374372E-3,1.927103E-1,-3.3493992E-3,1.7792113E-1,-4.662634E-3,1.9348377E-1,-5.864688E-3,1.9380186E-1,-7.061168E-4],"categories":[],"categories_nodes":[],"categories_segments":[],"categories_sizes":[],"default_left":[0,0,0,0,0,0,0,0,0,0,0,0,0],"id":22,"left_children":[1,-1,3,-1,5,-1,7,-1,9,-1,11,-1,-1],"loss_changes":[1.2866089E2,0E0,1.2743723E2,0E0,1.2755049E2,0E0,1.2762478E2,0E0,1.2701674E2,0E0,1.2663958E2,0E0,0E0],"parents":[2147483647,0,0,2,2,4,4,6,6,8,8,10,10],"right_children":[2,-1,4,-1,6,-1,8,-1,10,-1,12,-1,-1],"split_conditions":[2.00001E0,1.9453393E-1,2.00001E0,2.0030475E-1,2.00001E0,1.927103E-1,2.00001E0,1.7792113E-1,2.00001E0,1.9348377E-1,2.00001E0,1.9380186E-1,-7.061168E-4],"split_indices":[83834,0,46637,0,95090,0,60838,0,91869,0,7470,0,0],"split_type":[0,0,0,0,0,0,0,0,0,0,0,0,0],"sum_hessian":[5.4611457E4,3.2985374E1,5.4578473E4,3.0713184E1,5.4547758E4,3.3248123E1,5.451451E4,3.9135307E1,5.4475375E4,3.2745216E1,5.444263E4,3.2493614E1,5.4410137E4],"tree_param":{"num_deleted":"0","num_feature":"111427","num_nodes":"13","size_leaf_vector":"1"}},{"base_weights":[2.3836012E-4,1.9387224E-1,-9.512488E-4,1.8962207E-1,-2.1671175E-3,1.7666589E-1,-3.471352E-3,1.9628651E-1,-4.6442724E-3,1.946504E-1,-5.826478E-3,1.7830347E-1,-7.1175315E-4],"categories":[],"categories_nodes":[],"categories_segments":[],"categories_sizes":[],"default_left":[0,0,0,0,0,0,0,0,0,0,0,0,0],"id":23,"left_children":[1,-1,3,-1,5,-1,7,-1,9,-1,11,-1,-1],"loss_changes":[1.2593565E2,0E0,1.2589977E2,0E0,1.2583719E2,0E0,1.2571666E2,0E0,1.25662674E2,0E0,1.2574579E2,0E0,0E0],"parents":[2147483647,0,0,2,2,4,4,6,6,8,8,10,10],"right_children":[2,-1,4,-1,6,-1,8,-1,10,-1,12,-1,-1],"split_conditions":[2.00001E0,1.9387224E-1,2.00001E0,1.8962207E-1,2.00001E0,1.7666589E-1,2.00001E0,1.9628651E-1,2.00001E0,1.946504E-1,2.00001E0,1.7830347E-1,-7.1175315E-4],"split_indices":[18639,0,55475,0,110568,0,41487,0,39973,0,50725,0,0],"split_type":[0,0,0,0,0,0,0,0,0,0,0,0,0],"sum_hessian":[5.4609465E4,3.2493286E1,5.457697E4,3.3956932E1,5.454301E4,3.9190063E1,5.4503824E4,3.1495129E1,5.447233E4,3.1988518E1,5.444034E4,3.8266937E1,5.4402074E4],"tree_param":{"num_deleted":"0","num_feature":"111427","num_nodes":"13","size_leaf_vector":"1"}},{"base_weights":[2.3871673E-4,1.7802303E-1,-1.0456505E-3,1.9302785E-1,-2.2308424E-3,1.915335E-1,-3.426517E-3,1.8919119E-1,-4.6350504E-3,1.7734812E-1,-5.9246053E-3,1.9465165E-1,-7.099486E-4],"categories":[],"categories_nodes":[],"categories_segments":[],"categories_sizes":[],"default_left":[0,0,0,0,0,0,0,0,0,0,0,0,0],"id":24,"left_children":[1,-1,3,-1,5,-1,7,-1,9,-1,11,-1,-1],"loss_changes":[1.24843994E2,0E0,1.24912964E2,0E0,1.25047905E2,0E0,1.248543E2,0E0,1.2490941E2,0E0,1.2487384E2,0E0,0E0],"parents":[2147483647,0,0,2,2,4,4,6,6,8,8,10,10],"right_children":[2,-1,4,-1,6,-1,8,-1,10,-1,12,-1,-1],"split_conditions":[2.00001E0,1.7802303E-1,2.00001E0,1.9302785E-1,2.00001E0,1.915335E-1,2.00001E0,1.8919119E-1,2.00001E0,1.7734812E-1,2.00001E0,1.9465165E-1,-7.099486E-4],"split_indices":[85678,0,78714,0,77283,0,17646,0,52009,0,103940,0,0],"split_type":[0,0,0,0,0,0,0,0,0,0,0,0,0],"sum_hessian":[5.4606723E4,3.8374817E1,5.4568348E4,3.246808E1,5.453588E4,3.2986397E1,5.450289E4,3.3733875E1,5.446916E4,3.8478443E1,5.443068E4,3.1738174E1,5.439894E4],"tree_param":{"num_deleted":"0","num_feature":"111427","num_nodes":"13","size_leaf_vector":"1"}},{"base_weights":[2.3894421E-4,1.9671567E-1,-9.141272E-4,2.0334315E-1,-2.0300057E-3,1.926551E-1,-3.2062188E-3,1.7630678E-1,-4.4923075E-3,1.7582716E-1,-5.783576E-3,1.9326812E-1,-6.9584465E-4],"categories":[],"categories_nodes":[],"categories_segments":[],"categories_sizes":[],"default_left":[0,0,0,0,0,0,0,0,0,0,0,0,0],"id":25,"left_children":[1,-1,3,-1,5,-1,7,-1,9,-1,11,-1,-1],"loss_changes":[1.2384576E2,0E0,1.2389164E2,0E0,1.23737465E2,0E0,1.23838486E2,0E0,1.2400435E2,0E0,1.23986824E2,0E0,0E0],"parents":[2147483647,0,0,2,2,4,4,6,6,8,8,10,10],"right_children":[2,-1,4,-1,6,-1,8,-1,10,-1,12,-1,-1],"split_conditions":[2.00001E0,1.9671567E-1,2.00001E0,2.0334315E-1,2.00001E0,1.926551E-1,2.00001E0,1.7630678E-1,2.00001E0,1.7582716E-1,2.00001E0,1.9326812E-1,-6.9584465E-4],"split_indices":[66713,0,78219,0,46953,0,26292,0,89054,0,30408,0,0],"split_type":[0,0,0,0,0,0,0,0,0,0,0,0,0],"sum_hessian":[5.4604E4,3.0992945E1,5.4573008E4,2.8919504E1,5.454409E4,3.224763E1,5.451184E4,3.8666462E1,5.4473176E4,3.8877758E1,5.4434297E4,3.1975903E1,5.440232E4],"tree_param":{"num_deleted":"0","num_feature":"111427","num_nodes":"13","size_leaf_vector":"1"}},{"base_weights":[2.3897421E-4,1.954796E-1,-9.1603363E-4,1.7717996E-1,-2.1909524E-3,1.7121543E-1,-3.509269E-3,1.9202137E-1,-4.68271E-3,1.9265497E-1,-5.853453E-3,1.9634958E-1,-7.002594E-4],"categories":[],"categories_nodes":[],"categories_segments":[],"categories_sizes":[],"default_left":[0,0,0,0,0,0,0,0,0,0,0,0,0],"id":26,"left_children":[1,-1,3,-1,5,-1,7,-1,9,-1,11,-1,-1],"loss_changes":[1.2326841E2,0E0,1.2333857E2,0E0,1.2325329E2,0E0,1.2301808E2,0E0,1.231438E2,0E0,1.2318725E2,0E0,0E0],"parents":[2147483647,0,0,2,2,4,4,6,6,8,8,10,10],"right_children":[2,-1,4,-1,6,-1,8,-1,10,-1,12,-1,-1],"split_conditions":[2.00001E0,1.954796E-1,2.00001E0,1.7717996E-1,2.00001E0,1.7121543E-1,2.00001E0,1.9202137E-1,2.00001E0,1.9265497E-1,2.00001E0,1.9634958E-1,-7.002594E-4],"split_indices":[62832,0,92432,0,22397,0,40563,0,98627,0,51740,0,0],"split_type":[0,0,0,0,0,0,0,0,0,0,0,0,0],"sum_hessian":[5.460146E4,3.1247686E1,5.4570215E4,3.8220085E1,5.4531992E4,4.0905216E1,5.449109E4,3.222149E1,5.4458867E4,3.1997452E1,5.442687E4,3.0744398E1,5.4396125E4],"tree_param":{"num_deleted":"0","num_feature":"111427","num_nodes":"13","size_leaf_vector":"1"}},{"base_weights":[2.3977189E-4,1.9556342E-1,-9.068201E-4,1.7944707E-1,-2.1571137E-3,1.6703402E-1,-3.4987829E-3,1.9294745E-1,-4.6610045E-3,1.9281098E-1,-5.8238204E-3,1.6721855E-1,-7.1651535E-4],"categories":[],"categories_nodes":[],"categories_segments":[],"categories_sizes":[],"default_left":[0,0,0,0,0,0,0,0,0,0,0,0,0],"id":27,"left_children":[1,-1,3,-1,5,-1,7,-1,9,-1,11,-1,-1],"loss_changes":[1.2241571E2,0E0,1.2249613E2,0E0,1.2237087E2,0E0,1.2242016E2,0E0,1.2240083E2,0E0,1.2251054E2,0E0,0E0],"parents":[2147483647,0,0,2,2,4,4,6,6,8,8,10,10],"right_children":[2,-1,4,-1,6,-1,8,-1,10,-1,12,-1,-1],"split_conditions":[2.00001E0,1.9556342E-1,2.00001E0,1.7944707E-1,2.00001E0,1.6703402E-1,2.00001E0,1.9294745E-1,2.00001E0,1.9281098E-1,2.00001E0,1.6721855E-1,-7.1651535E-4],"split_indices":[98556,0,104944,0,17409,0,97945,0,80558,0,37354,0,0],"split_type":[0,0,0,0,0,0,0,0,0,0,0,0,0],"sum_hessian":[5.4598355E4,3.0997332E1,5.456736E4,3.6975937E1,5.4530383E4,4.2711838E1,5.448767E4,3.1744642E1,5.4455926E4,3.1746323E1,5.442418E4,4.2474815E1,5.4381707E4],"tree_param":{"num_deleted":"0","num_feature":"111427","num_nodes":"13","size_leaf_vector":"1"}},{"base_weights":[2.4212123E-4,1.9511345E-1,-9.010425E-4,1.8398525E-1,-2.1143002E-3,1.7698224E-1,-3.3735204E-3,1.7833374E-1,-4.6247514E-3,1.8235976E-1,-5.846487E-3,1.9676541E-1,-6.979906E-4],"categories":[],"categories_nodes":[],"categories_segments":[],"categories_sizes":[],"default_left":[0,0,0,0,0,0,0,0,0,0,0,0,0],"id":28,"left_children":[1,-1,3,-1,5,-1,7,-1,9,-1,11,-1,-1],"loss_changes":[1.2175858E2,0E0,1.2186183E2,0E0,1.2167411E2,0E0,1.2182813E2,0E0,1.2163947E2,0E0,1.21737595E2,0E0,0E0],"parents":[2147483647,0,0,2,2,4,4,6,6,8,8,10,10],"right_children":[2,-1,4,-1,6,-1,8,-1,10,-1,12,-1,-1],"split_conditions":[2.00001E0,1.9511345E-1,2.00001E0,1.8398525E-1,2.00001E0,1.7698224E-1,2.00001E0,1.7833374E-1,2.00001E0,1.8235976E-1,2.00001E0,1.9676541E-1,-6.979906E-4],"split_indices":[51917,0,46785,0,66725,0,79223,0,60686,0,43478,0,0],"split_type":[0,0,0,0,0,0,0,0,0,0,0,0,0],"sum_hessian":[5.459384E4,3.0972647E1,5.4562867E4,3.4941006E1,5.4527926E4,3.7725166E1,5.44902E4,3.7135994E1,5.4453066E4,3.5368595E1,5.4417695E4,3.023928E1,5.4387457E4],"tree_param":{"num_deleted":"0","num_feature":"111427","num_nodes":"13","size_leaf_vector":"1"}},{"base_weights":[2.42733E-4,1.8399118E-1,-9.6082763E-4,1.7952546E-1,-2.1958095E-3,1.9272295E-1,-3.3464676E-3,1.9272295E-1,-4.498457E-3,1.9258164E-1,-5.650866E-3,2.0414703E-1,-6.7387556E-4],"categories":[],"categories_nodes":[],"categories_segments":[],"categories_sizes":[],"default_left":[0,0,0,0,0,0,0,0,0,0,0,0,0],"id":29,"left_children":[1,-1,3,-1,5,-1,7,-1,9,-1,11,-1,-1],"loss_changes":[1.208758E2,0E0,1.2102702E2,0E0,1.210476E2,0E0,1.2119205E2,0E0,1.2115195E2,0E0,1.2122245E2,0E0,0E0],"parents":[2147483647,0,0,2,2,4,4,6,6,8,8,10,10],"right_children":[2,-1,4,-1,6,-1,8,-1,10,-1,12,-1,-1],"split_conditions":[2.00001E0,1.8399118E-1,2.00001E0,1.7952546E-1,2.00001E0,1.9272295E-1,2.00001E0,1.9272295E-1,2.00001E0,1.9258164E-1,2.00001E0,2.0414703E-1,-6.7387556E-4],"split_indices":[72088,0,76635,0,54264,0,75435,0,28044,0,41582,0,0],"split_type":[0,0,0,0,0,0,0,0,0,0,0,0,0],"sum_hessian":[5.4590543E4,3.4692417E1,5.4555848E4,3.6485825E1,5.4519363E4,3.1496859E1,5.4487867E4,3.1496859E1,5.445637E4,3.1494883E1,5.4424875E4,2.7911154E1,5.4396965E4],"tree_param":{"num_deleted":"0","num_feature":"111427","num_nodes":"13","size_leaf_vector":"1"}},{"base_weights":[2.4198553E-4,1.9890302E-1,-8.676636E-4,1.9721237E-1,-1.9877728E-3,1.6412635E-1,-3.3333811E-3,1.9024773E-1,-4.4954615E-3,1.7669095E-1,-5.7475935E-3,1.9355151E-1,-6.8894605E-4],"categories":[],"categories_nodes":[],"categories_segments":[],"categories_sizes":[],"default_left":[0,0,0,0,0,0,0,0,0,0,0,0,0],"id":30,"left_children":[1,-1,3,-1,5,-1,7,-1,9,-1,11,-1,-1],"loss_changes":[1.2047287E2,0E0,1.2057967E2,0E0,1.2058086E2,0E0,1.20679924E2,0E0,1.2079147E2,0E0,1.2063701E2,0E0,0E0],"parents":[2147483647,0,0,2,2,4,4,6,6,8,8,10,10],"right_children":[2,-1,4,-1,6,-1,8,-1,10,-1,12,-1,-1],"split_conditions":[2.00001E0,1.9890302E-1,2.00001E0,1.9721237E-1,2.00001E0,1.6412635E-1,2.00001E0,1.9024773E-1,2.00001E0,1.7669095E-1,2.00001E0,1.9355151E-1,-6.8894605E-4],"split_indices":[76197,0,50040,0,35175,0,28311,0,102355,0,32196,0,0],"split_type":[0,0,0,0,0,0,0,0,0,0,0,0,0],"sum_hessian":[5.458846E4,2.944177E1,5.455902E4,2.9958313E1,5.4529062E4,4.36185E1,5.448544E4,3.2205566E1,5.445324E4,3.7467484E1,5.441577E4,3.0993126E1,5.4384777E4],"tree_param":{"num_deleted":"0","num_feature":"111427","num_nodes":"13","size_leaf_vector":"1"}},{"base_weights":[2.4209342E-4,1.942449E-1,-8.8764477E-4,1.9654112E-1,-2.0052954E-3,1.7968732E-1,-3.2267626E-3,1.7682888E-1,-4.4689104E-3,-5.8137834E-2,3.797405E-2,-4.7800886E-3,-8.485099E-2,1.8158157E-1,1.5772186E-3],"categories":[],"categories_nodes":[],"categories_segments":[],"categories_sizes":[],"default_left":[0,0,0,0,0,0,0,0,0,0,0,0,0,0,0],"id":31,"left_children":[1,-1,3,-1,5,-1,7,-1,9,11,13,-1,-1,-1,-1],"loss_changes":[1.1977446E2,0E0,1.1989746E2,0E0,1.1981355E2,0E0,1.199116E2,0E0,1.2403786E2,1.964211E2,1.2001749E3,0E0,0E0,0E0,0E0],"parents":[2147483647,0,0,2,2,4,4,6,6,8,8,9,9,10,10],"right_children":[2,-1,4,-1,6,-1,8,-1,10,12,14,-1,-1,-1,-1],"split_conditions":[2.00001E0,1.942449E-1,2.00001E0,1.9654112E-1,2.00001E0,1.7968732E-1,2.00001E0,1.7682888E-1,-2.4143052E-1,1.649673E0,-1.318811E-1,-4.7800886E-3,-8.485099E-2,1.8158157E-1,1.5772186E-3],"split_indices":[72333,0,10875,0,94836,0,32914,0,1,2,1,0,0,0,0],"split_type":[0,0,0,0,0,0,0,0,0,0,0,0,0,0,0],"sum_hessian":[5.458543E4,3.0733698E1,5.4554695E4,2.9993036E1,5.4524703E4,3.6000496E1,5.44887E4,3.718273E1,5.445152E4,2.40456E4,3.0405918E4,2.3736225E4,3.093759E2,3.7403232E2,3.0031887E4],"tree_param":{"num_deleted":"0","num_feature":"111427","num_nodes":"15","size_leaf_vector":"1"}},{"base_weights":[2.4793338E-4,2.07534E-1,-8.0927176E-4,1.9401535E-1,-1.9394029E-3,1.7998302E-1,-3.1578187E-3,1.7685507E-1,-4.393758E-3,1.6126846E-1,-5.749713E-3,1.9255656E-1,-6.8863184E-4],"categories":[],"categories_nodes":[],"categories_segments":[],"categories_sizes":[],"default_left":[0,0,0,0,0,0,0,0,0,0,0,0,0],"id":32,"left_children":[1,-1,3,-1,5,-1,7,-1,9,-1,11,-1,-1],"loss_changes":[1.1971734E2,0E0,1.1964672E2,0E0,1.1967727E2,0E0,1.1929664E2,0E0,1.1937845E2,0E0,1.1941826E2,0E0,0E0],"parents":[2147483647,0,0,2,2,4,4,6,6,8,8,10,10],"right_children":[2,-1,4,-1,6,-1,8,-1,10,-1,12,-1,-1],"split_conditions":[2.00001E0,2.07534E-1,2.00001E0,1.9401535E-1,2.00001E0,1.7998302E-1,2.00001E0,1.7685507E-1,2.00001E0,1.6126846E-1,2.00001E0,1.9255656E-1,-6.8863184E-4],"split_indices":[110731,0,45631,0,108923,0,79003,0,76600,0,99899,0,0],"split_type":[0,0,0,0,0,0,0,0,0,0,0,0,0],"sum_hessian":[5.4569047E4,2.6788244E1,5.4542258E4,3.0740486E1,5.451152E4,3.5839996E1,5.447568E4,3.6978764E1,5.44387E4,4.461419E1,5.4394086E4,3.0996979E1,5.436309E4],"tree_param":{"num_deleted":"0","num_feature":"111427","num_nodes":"13","size_leaf_vector":"1"}},{"base_weights":[2.47942E-4,1.9401634E-1,-8.7220577E-4,1.7757532E-1,-2.096016E-3,1.7648669E-1,-3.327765E-3,1.9284157E-1,-4.453812E-3,1.6028774E-1,-5.806691E-3,1.9255024E-1,-6.9345644E-4],"categories":[],"categories_nodes":[],"categories_segments":[],"categories_sizes":[],"default_left":[0,0,0,0,0,0,0,0,0,0,0,0,0],"id":33,"left_children":[1,-1,3,-1,5,-1,7,-1,9,-1,11,-1,-1],"loss_changes":[1.1857444E2,0E0,1.18578926E2,0E0,1.186217E2,0E0,1.1847741E2,0E0,1.1837274E2,0E0,1.18483215E2,0E0,0E0],"parents":[2147483647,0,0,2,2,4,4,6,6,8,8,10,10],"right_children":[2,-1,4,-1,6,-1,8,-1,10,-1,12,-1,-1],"split_conditions":[2.00001E0,1.9401634E-1,1E0,1.7757532E-1,2.00001E0,1.7648669E-1,2.00001E0,1.9284157E-1,2.00001E0,1.6028774E-1,2.00001E0,1.9255024E-1,-6.9345644E-4],"split_indices":[94287,0,111419,0,77718,0,56070,0,86821,0,50612,0,0],"split_type":[0,0,0,0,0,0,0,0,0,0,0,0,0],"sum_hessian":[5.4565582E4,3.0490154E1,5.4535094E4,3.654195E1,5.449855E4,3.6967033E1,5.4461582E4,3.0730986E1,5.443085E4,4.477999E1,5.4386074E4,3.0746788E1,5.435533E4],"tree_param":{"num_deleted":"0","num_feature":"111427","num_nodes":"13","size_leaf_vector":"1"}},{"base_weights":[2.4910772E-4,1.9642209E-1,-8.4909465E-4,1.939635E-1,-1.9613313E-3,1.6593741E-1,-3.261558E-3,1.9701236E-1,-4.357413E-3,1.6604988E-1,-5.655932E-3,8.323238E-3,-3.0194065E-3],"categories":[],"categories_nodes":[],"categories_segments":[],"categories_sizes":[],"default_left":[0,0,0,0,0,0,0,0,0,0,0,0,0],"id":34,"left_children":[1,-1,3,-1,5,-1,7,-1,9,-1,11,-1,-1],"loss_changes":[1.1768363E2,0E0,1.1770066E2,0E0,1.1773699E2,0E0,1.17782646E2,0E0,1.1768237E2,0E0,1.1863596E2,0E0,0E0],"parents":[2147483647,0,0,2,2,4,4,6,6,8,8,10,10],"right_children":[2,-1,4,-1,6,-1,8,-1,10,-1,12,-1,-1],"split_conditions":[2.00001E0,1.9642209E-1,2.00001E0,1.939635E-1,2.00001E0,1.6593741E-1,2.00001E0,1.9701236E-1,2.00001E0,1.6604988E-1,2.00001E0,8.323238E-3,-3.0194065E-3],"split_indices":[107360,0,9413,0,58011,0,47093,0,60821,0,111417,0,0],"split_type":[0,0,0,0,0,0,0,0,0,0,0,0,0],"sum_hessian":[5.4561254E4,2.949319E1,5.453176E4,3.0239914E1,5.4501523E4,4.1624424E1,5.44599E4,2.9228497E1,5.4430668E4,4.1424767E1,5.4389246E4,1.1765791E4,4.2623453E4],"tree_param":{"num_deleted":"0","num_feature":"111427","num_nodes":"13","size_leaf_vector":"1"}},{"base_weights":[2.459022E-4,1.7744504E-1,-9.6625416E-4,1.7794919E-1,-2.176492E-3,1.9458084E-1,-3.2834401E-3,1.7670262E-1,-4.5028133E-3,1.983389E-1,-5.58935E-3,1.7600214E-1,-6.812731E-4],"categories":[],"categories_nodes":[],"categories_segments":[],"categories_sizes":[],"default_left":[0,0,0,0,0,0,0,0,0,0,0,0,0],"id":35,"left_children":[1,-1,3,-1,5,-1,7,-1,9,-1,11,-1,-1],"loss_changes":[1.17326965E2,0E0,1.17478195E2,0E0,1.1748701E2,0E0,1.1755196E2,0E0,1.17544304E2,0E0,1.1748852E2,0E0,0E0],"parents":[2147483647,0,0,2,2,4,4,6,6,8,8,10,10],"right_children":[2,-1,4,-1,6,-1,8,-1,10,-1,12,-1,-1],"split_conditions":[2.00001E0,1.7744504E-1,2.00001E0,1.7794919E-1,2.00001E0,1.9458084E-1,2.00001E0,1.7670262E-1,2.00001E0,1.983389E-1,2.00001E0,1.7600214E-1,-6.812731E-4],"split_indices":[57375,0,9979,0,110771,0,22415,0,78459,0,55790,0,0],"split_type":[0,0,0,0,0,0,0,0,0,0,0,0,0],"sum_hessian":[5.455332E4,3.6247215E1,5.4517074E4,3.6033833E1,5.448104E4,2.9943682E1,5.4451098E4,3.6482834E1,5.4414613E4,2.8728905E1,5.4385883E4,3.666212E1,5.4349223E4],"tree_param":{"num_deleted":"0","num_feature":"111427","num_nodes":"13","size_leaf_vector":"1"}},{"base_weights":[2.463642E-4,1.9409001E-1,-8.5668376E-4,1.9405198E-1,-1.9607416E-3,1.6540428E-1,-3.2562313E-3,1.9396625E-1,-4.361986E-3,-2.952695E-1,3.5305854E-3,-1.2831622E-1,-1.5802292E-2,1.9555335E-1,1.1670647E-4],"categories":[],"categories_nodes":[],"categories_segments":[],"categories_sizes":[],"default_left":[0,0,0,0,0,0,0,0,0,0,0,0,0,0,0],"id":36,"left_children":[1,-1,3,-1,5,-1,7,-1,9,11,13,-1,-1,-1,-1],"loss_changes":[1.1677487E2,0E0,1.16863174E2,0E0,1.1690637E2,0E0,1.1698663E2,0E0,1.24948E2,1.9469409E2,2.4443893E2,0E0,0E0,0E0,0E0],"parents":[2147483647,0,0,2,2,4,4,6,6,8,8,9,9,10,10],"right_children":[2,-1,4,-1,6,-1,8,-1,10,12,14,-1,-1,-1,-1],"split_conditions":[2.00001E0,1.9409001E-1,2.00001E0,1.9405198E-1,2.00001E0,1.6540428E-1,2.00001E0,1.9396625E-1,-1.4488274E0,-1.1412215E0,-1.4180448E0,-1.2831622E-1,-1.5802292E-2,1.9555335E-1,1.1670647E-4],"split_indices":[27504,0,16109,0,42706,0,1639,0,0,2,0,0,0,0,0],"split_type":[0,0,0,0,0,0,0,0,0,0,0,0,0,0,0],"sum_hessian":[5.4549754E4,2.9988926E1,5.4519766E4,2.998926E1,5.4489777E4,4.1596714E1,5.444818E4,2.9972761E1,5.4418207E4,1.4364528E3,5.2981754E4,1.742027E2,1.2622501E3,6.3074314E1,5.291868E4],"tree_param":{"num_deleted":"0","num_feature":"111427","num_nodes":"15","size_leaf_vector":"1"}},{"base_weights":[2.3871759E-4,1.6734985E-1,-1.0586336E-3,1.969062E-1,-2.151972E-3,1.894671E-1,-3.2822767E-3,1.5695621E-1,-4.6480433E-3,1.9304185E-1,-5.759948E-3,1.9282107E-1,-6.8719056E-4],"categories":[],"categories_nodes":[],"categories_segments":[],"categories_sizes":[],"default_left":[0,0,0,0,0,0,0,0,0,0,0,0,0],"id":37,"left_children":[1,-1,3,-1,5,-1,7,-1,9,-1,11,-1,-1],"loss_changes":[1.184126E2,0E0,1.1740996E2,0E0,1.1680308E2,0E0,1.1696272E2,0E0,1.17056E2,0E0,1.1693246E2,0E0,0E0],"parents":[2147483647,0,0,2,2,4,4,6,6,8,8,10,10],"right_children":[2,-1,4,-1,6,-1,8,-1,10,-1,12,-1,-1],"split_conditions":[2.00001E0,1.6734985E-1,2.00001E0,1.969062E-1,2.00001E0,1.894671E-1,2.00001E0,1.5695621E-1,2.00001E0,1.9304185E-1,2.00001E0,1.9282107E-1,-6.8719056E-4],"split_indices":[80433,0,27654,0,77684,0,11407,0,108107,0,30318,0,0],"split_type":[0,0,0,0,0,0,0,0,0,0,0,0,0],"sum_hessian":[5.454595E4,4.1260494E1,5.4504688E4,2.92328E1,5.4475457E4,3.1444569E1,5.444401E4,4.6238827E1,5.4397773E4,3.0242983E1,5.436753E4,3.024538E1,5.4337285E4],"tree_param":{"num_deleted":"0","num_feature":"111427","num_nodes":"13","size_leaf_vector":"1"}},{"base_weights":[2.4068925E-4,1.7828484E-1,-9.545833E-4,1.7612766E-1,-2.1654407E-3,1.9200748E-1,-3.277576E-3,1.9205056E-1,-4.390571E-3,1.7683606E-1,-5.5966466E-3,1.7918631E-1,-6.7871984E-4],"categories":[],"categories_nodes":[],"categories_segments":[],"categories_sizes":[],"default_left":[0,0,0,0,0,0,0,0,0,0,0,0,0],"id":38,"left_children":[1,-1,3,-1,5,-1,7,-1,9,-1,11,-1,-1],"loss_changes":[1.162157E2,0E0,1.1631151E2,0E0,1.164531E2,0E0,1.1657343E2,0E0,1.1634167E2,0E0,1.16370026E2,0E0,0E0],"parents":[2147483647,0,0,2,2,4,4,6,6,8,8,10,10],"right_children":[2,-1,4,-1,6,-1,8,-1,10,-1,12,-1,-1],"split_conditions":[2.00001E0,1.7828484E-1,2.00001E0,1.7612766E-1,2.00001E0,1.9200748E-1,2.00001E0,1.9205056E-1,2.00001E0,1.7683606E-1,2.00001E0,1.7918631E-1,-6.7871984E-4],"split_indices":[44083,0,9091,0,42108,0,71248,0,23998,0,29238,0,0],"split_type":[0,0,0,0,0,0,0,0,0,0,0,0,0],"sum_hessian":[5.4541586E4,3.554788E1,5.450604E4,3.6428177E1,5.446961E4,3.0498114E1,5.4439113E4,3.0480104E1,5.4408633E4,3.5995117E1,5.4372637E4,3.4994434E1,5.4337645E4],"tree_param":{"num_deleted":"0","num_feature":"111427","num_nodes":"13","size_leaf_vector":"1"}},{"base_weights":[2.4181476E-4,1.9078155E-1,-8.69315E-4,1.7839736E-1,-2.0586306E-3,1.6628478E-1,-3.3346058E-3,1.9291602E-1,-4.435548E-3,1.8631594E-1,-5.5766506E-3,1.9290067E-1,-6.6800084E-4],"categories":[],"categories_nodes":[],"categories_segments":[],"categories_sizes":[],"default_left":[0,0,0,0,0,0,0,0,0,0,0,0,0],"id":39,"left_children":[1,-1,3,-1,5,-1,7,-1,9,-1,11,-1,-1],"loss_changes":[1.1560021E2,0E0,1.1571037E2,0E0,1.1572653E2,0E0,1.1581647E2,0E0,1.159477E2,0E0,1.1606752E2,0E0,0E0],"parents":[2147483647,0,0,2,2,4,4,6,6,8,8,10,10],"right_children":[2,-1,4,-1,6,-1,8,-1,10,-1,12,-1,-1],"split_conditions":[2.00001E0,1.9078155E-1,2.00001E0,1.7839736E-1,2.00001E0,1.6628478E-1,2.00001E0,1.9291602E-1,2.00001E0,1.8631594E-1,2.00001E0,1.9290067E-1,-6.6800084E-4],"split_indices":[98404,0,79904,0,100221,0,80815,0,8087,0,18377,0,0],"split_type":[0,0,0,0,0,0,0,0,0,0,0,0,0],"sum_hessian":[5.4537895E4,3.0749956E1,5.4507145E4,3.529803E1,5.4471848E4,4.0717716E1,5.443113E4,2.9994627E1,5.4401137E4,3.2222446E1,5.4368914E4,2.9994766E1,5.4338918E4],"tree_param":{"num_deleted":"0","num_feature":"111427","num_nodes":"13","size_leaf_vector":"1"}},{"base_weights":[2.4211511E-4,1.9294468E-1,-8.5492997E-4,1.9294468E-1,-1.9531832E-3,1.9294468E-1,-3.0526463E-3,1.9446737E-1,-4.1437624E-3,1.900423E-1,-5.2607544E-3,1.93621E-1,-6.358235E-4],"categories":[],"categories_nodes":[],"categories_segments":[],"categories_sizes":[],"default_left":[0,0,0,0,0,0,0,0,0,0,0,0,0],"id":40,"left_children":[1,-1,3,-1,5,-1,7,-1,9,-1,11,-1,-1],"loss_changes":[1.1542237E2,0E0,1.155537E2,0E0,1.1568527E2,0E0,1.157159E2,0E0,1.15774315E2,0E0,1.1589263E2,0E0,0E0],"parents":[2147483647,0,0,2,2,4,4,6,6,8,8,10,10],"right_children":[2,-1,4,-1,6,-1,8,-1,10,-1,12,-1,-1],"split_conditions":[2.00001E0,1.9294468E-1,2.00001E0,1.9294468E-1,2.00001E0,1.9294468E-1,2.00001E0,1.9446737E-1,2.00001E0,1.900423E-1,2.00001E0,1.93621E-1,-6.358235E-4],"split_indices":[527,0,16650,0,24591,0,31233,0,82333,0,57048,0,0],"split_type":[0,0,0,0,0,0,0,0,0,0,0,0,0],"sum_hessian":[5.4534715E4,2.9994635E1,5.4504723E4,2.9994635E1,5.4474727E4,2.9994635E1,5.444473E4,2.9485546E1,5.4415246E4,3.0898138E1,5.4384348E4,2.972903E1,5.435462E4],"tree_param":{"num_deleted":"0","num_feature":"111427","num_nodes":"13","size_leaf_vector":"1"}},{"base_weights":[2.4038248E-4,1.9601613E-1,-8.381741E-4,1.9439782E-1,-1.9265382E-3,1.935605E-1,-3.0199888E-3,1.9599229E-1,-4.101023E-3,1.7931741E-1,-5.2825133E-3,1.7931741E-1,-6.465515E-4],"categories":[],"categories_nodes":[],"categories_segments":[],"categories_sizes":[],"default_left":[0,0,0,0,0,0,0,0,0,0,0,0,0],"id":41,"left_children":[1,-1,3,-1,5,-1,7,-1,9,-1,11,-1,-1],"loss_changes":[1.15281235E2,0E0,1.1537372E2,0E0,1.1541835E2,0E0,1.1554343E2,0E0,1.15562546E2,0E0,1.1571458E2,0E0,0E0],"parents":[2147483647,0,0,2,2,4,4,6,6,8,8,10,10],"right_children":[2,-1,4,-1,6,-1,8,-1,10,-1,12,-1,-1],"split_conditions":[2.00001E0,1.9601613E-1,2.00001E0,1.9439782E-1,2.00001E0,1.935605E-1,2.00001E0,1.9599229E-1,2.00001E0,1.7931741E-1,2.00001E0,1.7931741E-1,-6.465515E-4],"split_indices":[37036,0,55874,0,31163,0,104856,0,19664,0,100530,0,0],"split_type":[0,0,0,0,0,0,0,0,0,0,0,0,0],"sum_hessian":[5.453345E4,2.8994564E1,5.4504457E4,2.948644E1,5.447497E4,2.9727861E1,5.4445242E4,2.897028E1,5.441627E4,3.475219E1,5.438152E4,3.475219E1,5.4346766E4],"tree_param":{"num_deleted":"0","num_feature":"111427","num_nodes":"13","size_leaf_vector":"1"}},{"base_weights":[2.39993E-4,1.805267E-1,-9.2912227E-4,1.9751585E-1,-1.9988415E-3,1.8039772E-1,-3.1696532E-3,1.9726555E-1,-4.240478E-3,1.930194E-1,-5.334105E-3,1.930151E-1,-6.428905E-4],"categories":[],"categories_nodes":[],"categories_segments":[],"categories_sizes":[],"default_left":[0,0,0,0,0,0,0,0,0,0,0,0,0],"id":42,"left_children":[1,-1,3,-1,5,-1,7,-1,9,-1,11,-1,-1],"loss_changes":[1.1508012E2,0E0,1.1520483E2,0E0,1.15178986E2,0E0,1.1518014E2,0E0,1.1511023E2,0E0,1.1523535E2,0E0,0E0],"parents":[2147483647,0,0,2,2,4,4,6,6,8,8,10,10],"right_children":[2,-1,4,-1,6,-1,8,-1,10,-1,12,-1,-1],"split_conditions":[2.00001E0,1.805267E-1,2.00001E0,1.9751585E-1,2.00001E0,1.8039772E-1,2.00001E0,1.9726555E-1,2.00001E0,1.930194E-1,2.00001E0,1.930151E-1,-6.428905E-4],"split_indices":[4427,0,14637,0,97051,0,99876,0,80626,0,75122,0,0],"split_type":[0,0,0,0,0,0,0,0,0,0,0,0,0],"sum_hessian":[5.4531195E4,3.4298134E1,5.44969E4,2.84865E1,5.446841E4,3.429132E1,5.443412E4,2.8488E1,5.4405633E4,2.974401E1,5.4375887E4,2.9744017E1,5.4346145E4],"tree_param":{"num_deleted":"0","num_feature":"111427","num_nodes":"13","size_leaf_vector":"1"}},{"base_weights":[2.3971761E-4,1.9305655E-1,-8.491943E-4,1.9219321E-1,-1.9413747E-3,1.7081958E-1,-3.1713773E-3,1.9354454E-1,-4.2568394E-3,1.9186041E-1,-5.3523676E-3,1.7862724E-1,-6.5300654E-4],"categories":[],"categories_nodes":[],"categories_segments":[],"categories_sizes":[],"default_left":[0,0,0,0,0,0,0,0,0,0,0,0,0],"id":43,"left_children":[1,-1,3,-1,5,-1,7,-1,9,-1,11,-1,-1],"loss_changes":[1.1462118E2,0E0,1.1445553E2,0E0,1.1458222E2,0E0,1.145495E2,0E0,1.1461217E2,0E0,1.147376E2,0E0,0E0],"parents":[2147483647,0,0,2,2,4,4,6,6,8,8,10,10],"right_children":[2,-1,4,-1,6,-1,8,-1,10,-1,12,-1,-1],"split_conditions":[2.00001E0,1.9305655E-1,2.00001E0,1.9219321E-1,2.00001E0,1.7081958E-1,2.00001E0,1.9354454E-1,2.00001E0,1.9186041E-1,2.00001E0,1.7862724E-1,-6.5300654E-4],"split_indices":[78971,0,97177,0,73778,0,47092,0,22680,0,93127,0,0],"split_type":[0,0,0,0,0,0,0,0,0,0,0,0,0],"sum_hessian":[5.4528977E4,2.9743885E1,5.4499234E4,2.9940718E1,5.4469293E4,3.8151028E1,5.443114E4,2.9462547E1,5.440168E4,2.9980448E1,5.43717E4,3.472123E1,5.4336977E4],"tree_param":{"num_deleted":"0","num_feature":"111427","num_nodes":"13","size_leaf_vector":"1"}},{"base_weights":[2.3966104E-4,1.7684226E-1,-9.4275066E-4,1.7724673E-1,-2.1236304E-3,1.5887307E-1,-3.442505E-3,1.7754592E-1,-4.6211774E-3,1.7940179E-1,-5.7881586E-3,1.7911653E-1,-6.957366E-4],"categories":[],"categories_nodes":[],"categories_segments":[],"categories_sizes":[],"default_left":[0,0,0,0,0,0,0,0,0,0,0,0,0],"id":44,"left_children":[1,-1,3,-1,5,-1,7,-1,9,-1,11,-1,-1],"loss_changes":[1.1400306E2,0E0,1.14119804E2,0E0,1.1426295E2,0E0,1.1409725E2,0E0,1.1414751E2,0E0,1.1418822E2,0E0,0E0],"parents":[2147483647,0,0,2,2,4,4,6,6,8,8,10,10],"right_children":[2,-1,4,-1,6,-1,8,-1,10,-1,12,-1,-1],"split_conditions":[2.00001E0,1.7684226E-1,2.00001E0,1.7724673E-1,2.00001E0,1.5887307E-1,2.00001E0,1.7754592E-1,2.00001E0,1.7940179E-1,2.00001E0,1.7911653E-1,-6.957366E-4],"split_indices":[30777,0,15828,0,104188,0,37555,0,35572,0,51380,0,0],"split_type":[0,0,0,0,0,0,0,0,0,0,0,0,0],"sum_hessian":[5.4526332E4,3.543945E1,5.449089E4,3.526215E1,5.445563E4,4.411124E1,5.441152E4,3.5031612E1,5.437649E4,3.426118E1,5.4342227E4,3.43399E1,5.4307887E4],"tree_param":{"num_deleted":"0","num_feature":"111427","num_nodes":"13","size_leaf_vector":"1"}},{"base_weights":[2.4286592E-4,1.791709E-1,-9.191113E-4,1.9449739E-1,-1.990509E-3,1.9449739E-1,-3.0630475E-3,1.8554246E-1,-4.1881446E-3,1.8091513E-1,-5.340922E-3,1.9759703E-1,-6.3977536E-4],"categories":[],"categories_nodes":[],"categories_segments":[],"categories_sizes":[],"default_left":[0,0,0,0,0,0,0,0,0,0,0,0,0],"id":45,"left_children":[1,-1,3,-1,5,-1,7,-1,9,-1,11,-1,-1],"loss_changes":[1.1349649E2,0E0,1.1360061E2,0E0,1.1372576E2,0E0,1.1381859E2,0E0,1.1372101E2,0E0,1.13845955E2,0E0,0E0],"parents":[2147483647,0,0,2,2,4,4,6,6,8,8,10,10],"right_children":[2,-1,4,-1,6,-1,8,-1,10,-1,12,-1,-1],"split_conditions":[2.00001E0,1.791709E-1,2.00001E0,1.9449739E-1,2.00001E0,1.9449739E-1,2.00001E0,1.8554246E-1,2.00001E0,1.8091513E-1,2.00001E0,1.9759703E-1,-6.3977536E-4],"split_indices":[85492,0,31006,0,107219,0,29869,0,49585,0,37341,0,0],"split_type":[0,0,0,0,0,0,0,0,0,0,0,0,0],"sum_hessian":[5.4520766E4,3.4341385E1,5.448642E4,2.898498E1,5.4457438E4,2.898498E1,5.4428453E4,3.1932983E1,5.439652E4,3.3562607E1,5.4362957E4,2.7985497E1,5.4334973E4],"tree_param":{"num_deleted":"0","num_feature":"111427","num_nodes":"13","size_leaf_vector":"1"}},{"base_weights":[2.4222344E-4,1.9196685E-1,-8.394436E-4,1.7823653E-1,-2.003935E-3,1.9741082E-1,-3.056329E-3,1.7706321E-1,-4.2307745E-3,1.7706321E-1,-5.4067327E-3,1.7706321E-1,-6.5842073E-4],"categories":[],"categories_nodes":[],"categories_segments":[],"categories_sizes":[],"default_left":[0,0,0,0,0,0,0,0,0,0,0,0,0],"id":46,"left_children":[1,-1,3,-1,5,-1,7,-1,9,-1,11,-1,-1],"loss_changes":[1.1319384E2,0E0,1.13153E2,0E0,1.132537E2,0E0,1.13384796E2,0E0,1.1353505E2,0E0,1.1368558E2,0E0,0E0],"parents":[2147483647,0,0,2,2,4,4,6,6,8,8,10,10],"right_children":[2,-1,4,-1,6,-1,8,-1,10,-1,12,-1,-1],"split_conditions":[2.00001E0,1.9196685E-1,2.00001E0,1.7823653E-1,2.00001E0,1.9741082E-1,2.00001E0,1.7706321E-1,2.00001E0,1.7706321E-1,2.00001E0,1.7706321E-1,-6.5842073E-4],"split_indices":[25317,0,17571,0,101587,0,40369,0,67209,0,81818,0,0],"split_type":[0,0,0,0,0,0,0,0,0,0,0,0,0],"sum_hessian":[5.451846E4,2.9706848E1,5.4488754E4,3.45615E1,5.4454195E4,2.798665E1,5.4426207E4,3.5017437E1,5.439119E4,3.5017437E1,5.435617E4,3.5017437E1,5.4321156E4],"tree_param":{"num_deleted":"0","num_feature":"111427","num_nodes":"13","size_leaf_vector":"1"}},{"base_weights":[2.42908E-4,1.79525E-1,-9.1083895E-4,1.9315705E-1,-1.9841136E-3,1.6664436E-1,-3.2278688E-3,1.9892608E-1,-4.2710407E-3,1.80535E-1,-5.421492E-3,1.9623393E-1,-6.480656E-4],"categories":[],"categories_nodes":[],"categories_segments":[],"categories_sizes":[],"default_left":[0,0,0,0,0,0,0,0,0,0,0,0,0],"id":47,"left_children":[1,-1,3,-1,5,-1,7,-1,9,-1,11,-1,-1],"loss_changes":[1.1290348E2,0E0,1.1300407E2,0E0,1.1300119E2,0E0,1.131068E2,0E0,1.1323438E2,0E0,1.13292496E2,0E0,0E0],"parents":[2147483647,0,0,2,2,4,4,6,6,8,8,10,10],"right_children":[2,-1,4,-1,6,-1,8,-1,10,-1,12,-1,-1],"split_conditions":[2.00001E0,1.79525E-1,2.00001E0,1.9315705E-1,2.00001E0,1.6664436E-1,2.00001E0,1.9892608E-1,2.00001E0,1.80535E-1,2.00001E0,1.9623393E-1,-6.480656E-4],"split_indices":[25912,0,58521,0,81516,0,4164,0,41898,0,56313,0,0],"split_type":[0,0,0,0,0,0,0,0,0,0,0,0,0],"sum_hessian":[5.4515035E4,3.4018364E1,5.4481016E4,2.9242826E1,5.4451773E4,3.9564358E1,5.441221E4,2.7475399E1,5.4384734E4,3.355629E1,5.435118E4,2.824307E1,5.4322934E4],"tree_param":{"num_deleted":"0","num_feature":"111427","num_nodes":"13","size_leaf_vector":"1"}},{"base_weights":[2.4351543E-4,1.9629845E-1,-8.099276E-4,1.9460858E-1,-1.8729535E-3,1.7907892E-1,-3.028667E-3,1.6004354E-1,-4.321901E-3,1.6526957E-1,-5.5762352E-3,1.9773212E-1,-6.625228E-4],"categories":[],"categories_nodes":[],"categories_segments":[],"categories_sizes":[],"default_left":[0,0,0,0,0,0,0,0,0,0,0,0,0],"id":48,"left_children":[1,-1,3,-1,5,-1,7,-1,9,-1,11,-1,-1],"loss_changes":[1.1271396E2,0E0,1.1276465E2,0E0,1.1282696E2,0E0,1.1285856E2,0E0,1.1303293E2,0E0,1.13039894E2,0E0,0E0],"parents":[2147483647,0,0,2,2,4,4,6,6,8,8,10,10],"right_children":[2,-1,4,-1,6,-1,8,-1,10,-1,12,-1,-1],"split_conditions":[2.00001E0,1.9629845E-1,2.00001E0,1.9460858E-1,2.00001E0,1.7907892E-1,2.00001E0,1.6004354E-1,2.00001E0,1.6526957E-1,2.00001E0,1.9773212E-1,-6.625228E-4],"split_indices":[59182,0,41298,0,111276,0,8059,0,109930,0,53783,0,0],"split_type":[0,0,0,0,0,0,0,0,0,0,0,0,0],"sum_hessian":[5.4511676E4,2.824278E1,5.4483434E4,2.873381E1,5.44547E4,3.408618E1,5.4420613E4,4.285973E1,5.4377754E4,4.0136013E1,5.4337617E4,2.7734373E1,5.4309883E4],"tree_param":{"num_deleted":"0","num_feature":"111427","num_nodes":"13","size_leaf_vector":"1"}},{"base_weights":[2.4475803E-4,1.6442177E-1,-1.0081882E-3,1.7827106E-1,-2.1654188E-3,1.9586965E-1,-3.217213E-3,1.9320409E-1,-4.2845774E-3,1.9315672E-1,-5.3519635E-3,1.9399957E-1,-6.415761E-4],"categories":[],"categories_nodes":[],"categories_segments":[],"categories_sizes":[],"default_left":[0,0,0,0,0,0,0,0,0,0,0,0,0],"id":49,"left_children":[1,-1,3,-1,5,-1,7,-1,9,-1,11,-1,-1],"loss_changes":[1.12278885E2,0E0,1.1243533E2,0E0,1.1227166E2,0E0,1.1238973E2,0E0,1.1236863E2,0E0,1.1248231E2,0E0,0E0],"parents":[2147483647,0,0,2,2,4,4,6,6,8,8,10,10],"right_children":[2,-1,4,-1,6,-1,8,-1,10,-1,12,-1,-1],"split_conditions":[2.00001E0,1.6442177E-1,2.00001E0,1.7827106E-1,2.00001E0,1.9586965E-1,2.00001E0,1.9320409E-1,2.00001E0,1.9315672E-1,2.00001E0,1.9399957E-1,-6.415761E-4],"split_indices":[56468,0,1941,0,70132,0,68601,0,10503,0,97308,0,0],"split_type":[0,0,0,0,0,0,0,0,0,0,0,0,0],"sum_hessian":[5.4507543E4,4.051241E1,5.446703E4,3.431575E1,5.4432715E4,2.8183893E1,5.440453E4,2.8992281E1,5.437554E4,2.8968266E1,5.434657E4,2.8706566E1,5.4317863E4],"tree_param":{"num_deleted":"0","num_feature":"111427","num_nodes":"13","size_leaf_vector":"1"}},{"base_weights":[2.4443658E-4,1.9394758E-1,-8.13574E-4,1.9465357E-1,-1.8680198E-3,1.921057E-1,-2.936015E-3,1.7716694E-1,-4.0952563E-3,1.5446272E-1,-5.4262476E-3,8.133516E-3,-2.9390126E-3],"categories":[],"categories_nodes":[],"categories_segments":[],"categories_sizes":[],"default_left":[0,0,0,0,0,0,0,0,0,0,0,0,0],"id":50,"left_children":[1,-1,3,-1,5,-1,7,-1,9,-1,11,-1,-1],"loss_changes":[1.1183241E2,0E0,1.1186527E2,0E0,1.1182513E2,0E0,1.119584E2,0E0,1.1211362E2,0E0,1.1298085E2,0E0,0E0],"parents":[2147483647,0,0,2,2,4,4,6,6,8,8,10,10],"right_children":[2,-1,4,-1,6,-1,8,-1,10,-1,12,-1,-1],"split_conditions":[2.00001E0,1.9394758E-1,2.00001E0,1.9465357E-1,2.00001E0,1.921057E-1,2.00001E0,1.7716694E-1,2.00001E0,1.5446272E-1,2.00001E0,8.133516E-3,-2.9390126E-3],"split_indices":[7346,0,65586,0,16821,0,4430,0,28853,0,111417,0,0],"split_type":[0,0,0,0,0,0,0,0,0,0,0,0,0],"sum_hessian":[5.4504703E4,2.872156E1,5.4475984E4,2.8483057E1,5.44475E4,2.922551E1,5.4418273E4,3.4527893E1,5.4383746E4,4.5702293E1,5.4338043E4,1.1759671E4,4.257837E4],"tree_param":{"num_deleted":"0","num_feature":"111427","num_nodes":"13","size_leaf_vector":"1"}},{"base_weights":[2.4125779E-4,2.003845E-1,-7.833167E-4,1.9809908E-1,-1.820048E-3,1.7960595E-1,-2.9636614E-3,1.5645649E-1,-4.276259E-3,1.9289927E-1,-5.3426847E-3,1.896861E-1,-6.428246E-4],"categories":[],"categories_nodes":[],"categories_segments":[],"categories_sizes":[],"default_left":[0,0,0,0,0,0,0,0,0,0,0,0,0],"id":51,"left_children":[1,-1,3,-1,5,-1,7,-1,9,-1,11,-1,-1],"loss_changes":[1.1187712E2,0E0,1.1191805E2,0E0,1.1194562E2,0E0,1.1195703E2,0E0,1.1209485E2,0E0,1.1221475E2,0E0,0E0],"parents":[2147483647,0,0,2,2,4,4,6,6,8,8,10,10],"right_children":[2,-1,4,-1,6,-1,8,-1,10,-1,12,-1,-1],"split_conditions":[2.00001E0,2.003845E-1,2.00001E0,1.9809908E-1,2.00001E0,1.7960595E-1,2.00001E0,1.5645649E-1,2.00001E0,1.9289927E-1,2.00001E0,1.896861E-1,-6.428246E-4],"split_indices":[80987,0,2245,0,59560,0,44088,0,7384,0,12510,0,0],"split_type":[0,0,0,0,0,0,0,0,0,0,0,0,0],"sum_hessian":[5.449691E4,2.6854515E1,5.4470055E4,2.7481623E1,5.4442574E4,3.3610657E1,5.440896E4,4.452574E1,5.4364438E4,2.8975172E1,5.433546E4,2.9994762E1,5.4305465E4],"tree_param":{"num_deleted":"0","num_feature":"111427","num_nodes":"13","size_leaf_vector":"1"}},{"base_weights":[2.4146747E-4,1.7781004E-1,-9.095641E-4,1.9616668E-1,-1.9540703E-3,1.9354096E-1,-3.0131084E-3,1.7740871E-1,-4.1665006E-3,1.9492814E-1,-5.2172E-3,1.7619659E-1,-6.3750386E-4],"categories":[],"categories_nodes":[],"categories_segments":[],"categories_sizes":[],"default_left":[0,0,0,0,0,0,0,0,0,0,0,0,0],"id":52,"left_children":[1,-1,3,-1,5,-1,7,-1,9,-1,11,-1,-1],"loss_changes":[1.1151819E2,0E0,1.1164371E2,0E0,1.11687355E2,0E0,1.11518524E2,0E0,1.11602905E2,0E0,1.11199615E2,0E0,0E0],"parents":[2147483647,0,0,2,2,4,4,6,6,8,8,10,10],"right_children":[2,-1,4,-1,6,-1,8,-1,10,-1,12,-1,-1],"split_conditions":[2.00001E0,1.7781004E-1,2.00001E0,1.9616668E-1,2.00001E0,1.9354096E-1,2.00001E0,1.7740871E-1,2.00001E0,1.9492814E-1,2.00001E0,1.7619659E-1,-6.3750386E-4],"split_indices":[10229,0,111141,0,53024,0,84121,0,21140,0,102329,0,0],"split_type":[0,0,0,0,0,0,0,0,0,0,0,0,0],"sum_hessian":[5.4493777E4,3.4259003E1,5.4459516E4,2.7970108E1,5.4431547E4,2.8740238E1,5.4402805E4,3.428917E1,5.4368516E4,2.8230646E1,5.4340285E4,3.458409E1,5.4305703E4],"tree_param":{"num_deleted":"0","num_feature":"111427","num_nodes":"13","size_leaf_vector":"1"}},{"base_weights":[2.4110588E-4,1.935182E-1,-8.065934E-4,1.935182E-1,-1.8553894E-3,1.935182E-1,-2.9052838E-3,1.6564676E-1,-4.132711E-3,1.7860372E-1,-5.2720984E-3,1.9666667E-1,-6.3065224E-4],"categories":[],"categories_nodes":[],"categories_segments":[],"categories_sizes":[],"default_left":[0,0,0,0,0,0,0,0,0,0,0,0,0],"id":53,"left_children":[1,-1,3,-1,5,-1,7,-1,9,-1,11,-1,-1],"loss_changes":[1.1047018E2,0E0,1.10589874E2,0E0,1.1070975E2,0E0,1.1082031E2,0E0,1.1090273E2,0E0,1.1084397E2,0E0,0E0],"parents":[2147483647,0,0,2,2,4,4,6,6,8,8,10,10],"right_children":[2,-1,4,-1,6,-1,8,-1,10,-1,12,-1,-1],"split_conditions":[2.00001E0,1.935182E-1,2.00001E0,1.935182E-1,2.00001E0,1.935182E-1,2.00001E0,1.6564676E-1,2.00001E0,1.7860372E-1,2.00001E0,1.9666667E-1,-6.3065224E-4],"split_indices":[12537,0,69662,0,107482,0,37950,0,21714,0,38704,0,0],"split_type":[0,0,0,0,0,0,0,0,0,0,0,0,0],"sum_hessian":[5.4491227E4,2.8489986E1,5.446274E4,2.8489986E1,5.4434246E4,2.8489986E1,5.4405758E4,3.921706E1,5.436654E4,3.358418E1,5.4332957E4,2.7490337E1,5.4305465E4],"tree_param":{"num_deleted":"0","num_feature":"111427","num_nodes":"13","size_leaf_vector":"1"}},{"base_weights":[2.4090787E-4,1.9672981E-1,-7.8809616E-4,1.949234E-1,-1.8262516E-3,1.7840545E-1,-2.9613774E-3,1.7829658E-1,-4.0983013E-3,1.6499412E-1,-5.328267E-3,1.5320264E-1,-6.6532544E-4],"categories":[],"categories_nodes":[],"categories_segments":[],"categories_sizes":[],"default_left":[0,0,0,0,0,0,0,0,0,0,0,0,0],"id":54,"left_children":[1,-1,3,-1,5,-1,7,-1,9,-1,11,-1,-1],"loss_changes":[1.1029446E2,0E0,1.1025805E2,0E0,1.1035407E2,0E0,1.1046559E2,0E0,1.1061351E2,0E0,1.1067405E2,0E0,0E0],"parents":[2147483647,0,0,2,2,4,4,6,6,8,8,10,10],"right_children":[2,-1,4,-1,6,-1,8,-1,10,-1,12,-1,-1],"split_conditions":[2.00001E0,1.9672981E-1,2.00001E0,1.949234E-1,2.00001E0,1.7840545E-1,2.00001E0,1.7829658E-1,2.00001E0,1.6499412E-1,1E0,1.5320264E-1,-6.6532544E-4],"split_indices":[49774,0,103950,0,4954,0,74107,0,18247,0,111422,0,0],"split_type":[0,0,0,0,0,0,0,0,0,0,0,0,0],"sum_hessian":[5.448859E4,2.749001E1,5.4461098E4,2.7980116E1,5.4433117E4,3.3578613E1,5.439954E4,3.3611725E1,5.4365926E4,3.9401146E1,5.4326527E4,4.5786835E1,5.428074E4],"tree_param":{"num_deleted":"0","num_feature":"111427","num_nodes":"13","size_leaf_vector":"1"}},{"base_weights":[2.4340955E-4,1.6624206E-1,-9.712693E-4,1.9478191E-1,-2.0091198E-3,1.6543436E-1,-3.2322432E-3,2.2288552E-2,-8.748496E-2,1.6534524E-1,2.070631E-2,-1.0198084E-1,7.237006E-1,1.9310646E-1,1.9354481E-3,-6.2524974E-3,-3.674397E-2,-1.6420768E-1,9.186959E-2],"categories":[],"categories_nodes":[],"categories_segments":[],"categories_sizes":[],"default_left":[0,0,0,0,0,0,1,0,0,0,0,0,0,0,0,0,0,0,0],"id":55,"left_children":[1,-1,3,-1,5,-1,7,9,11,-1,13,15,17,-1,-1,-1,-1,-1,-1],"loss_changes":[1.1000624E2,0E0,1.1012304E2,0E0,1.1025134E2,0E0,1.1692635E2,1.07684654E2,1.487342E2,0E0,1.0764583E2,1.3007718E2,1.03956276E2,0E0,0E0,0E0,0E0,0E0,0E0],"parents":[2147483647,0,0,2,2,4,4,6,6,7,7,8,8,10,10,11,11,12,12],"right_children":[2,-1,4,-1,6,-1,8,10,12,-1,14,16,18,-1,-1,-1,-1,-1,-1],"split_conditions":[2.00001E0,1.6624206E-1,2.00001E0,1.9478191E-1,2.00001E0,1.6543436E-1,1E0,2.00001E0,2.6773684E0,1.6534524E-1,2.00001E0,1.1438723E0,-7.960707E-1,1.9310646E-1,1.9354481E-3,-6.2524974E-3,-3.674397E-2,-1.6420768E-1,9.186959E-2],"split_indices":[17414,0,5964,0,19936,0,111421,86513,0,0,37479,1,1,0,0,0,0,0,0],"split_type":[0,0,0,0,0,0,0,0,0,0,0,0,0,0,0,0,0,0,0],"sum_hessian":[5.4483395E4,3.8787388E1,5.444461E4,2.7981222E1,5.441663E4,3.9156662E1,5.4377473E4,4.173604E4,1.2641431E4,3.943332E1,4.1696605E4,1.2420354E4,2.210773E2,2.8475552E1,4.1668133E4,1.0814239E4,1.6061141E3,1.626929E1,2.0480801E2],"tree_param":{"num_deleted":"0","num_feature":"111427","num_nodes":"19","size_leaf_vector":"1"}},{"base_weights":[2.3824543E-4,1.9802378E-1,-7.9624826E-4,2.1101215E-1,-1.754967E-3,1.981928E-1,-2.7740572E-3,1.953545E-1,-3.80762E-3,1.9044621E-1,-4.8688035E-3,1.8172656E-1,-5.981593E-4],"categories":[],"categories_nodes":[],"categories_segments":[],"categories_sizes":[],"default_left":[0,0,0,0,0,0,0,0,0,0,0,0,0],"id":56,"left_children":[1,-1,3,-1,5,-1,7,-1,9,-1,11,-1,-1],"loss_changes":[1.1158495E2,0E0,1.1019575E2,0E0,1.1002846E2,0E0,1.0999913E2,0E0,1.1011053E2,0E0,1.10195786E2,0E0,0E0],"parents":[2147483647,0,0,2,2,4,4,6,6,8,8,10,10],"right_children":[2,-1,4,-1,6,-1,8,-1,10,-1,12,-1,-1],"split_conditions":[2.00001E0,1.9802378E-1,2.00001E0,2.1101215E-1,2.00001E0,1.981928E-1,2.00001E0,1.953545E-1,2.00001E0,1.9044621E-1,2.00001E0,1.8172656E-1,-5.981593E-4],"split_indices":[84472,0,20469,0,81734,0,43402,0,5186,0,92584,0,0],"split_type":[0,0,0,0,0,0,0,0,0,0,0,0,0],"sum_hessian":[5.4475168E4,2.7447794E1,5.4447723E4,2.3718662E1,5.4424004E4,2.6947145E1,5.4397055E4,2.7726353E1,5.436933E4,2.9220936E1,5.434011E4,3.2169514E1,5.4307938E4],"tree_param":{"num_deleted":"0","num_feature":"111427","num_nodes":"13","size_leaf_vector":"1"}},{"base_weights":[2.361979E-4,1.8145947E-1,-8.73055E-4,1.9206378E-1,-1.9222028E-3,1.7742267E-1,-3.0586636E-3,1.7742267E-1,-4.1965377E-3,1.7980902E-1,-5.3202705E-3,1.9444583E-1,-6.3607673E-4],"categories":[],"categories_nodes":[],"categories_segments":[],"categories_sizes":[],"default_left":[0,0,0,0,0,0,0,0,0,0,0,0,0],"id":57,"left_children":[1,-1,3,-1,5,-1,7,-1,9,-1,11,-1,-1],"loss_changes":[1.096379E2,0E0,1.0975831E2,0E0,1.0984226E2,0E0,1.0998292E2,0E0,1.1007759E2,0E0,1.1020121E2,0E0,0E0],"parents":[2147483647,0,0,2,2,4,4,6,6,8,8,10,10],"right_children":[2,-1,4,-1,6,-1,8,-1,10,-1,12,-1,-1],"split_conditions":[2.00001E0,1.8145947E-1,2.00001E0,1.9206378E-1,2.00001E0,1.7742267E-1,2.00001E0,1.7742267E-1,2.00001E0,1.7980902E-1,2.00001E0,1.9444583E-1,-6.3607673E-4],"split_indices":[94060,0,12129,0,69975,0,76453,0,83834,0,12943,0,0],"split_type":[0,0,0,0,0,0,0,0,0,0,0,0,0],"sum_hessian":[5.447444E4,3.2285038E1,5.4442156E4,2.8710823E1,5.4413445E4,3.379629E1,5.437965E4,3.379629E1,5.434585E4,3.2867302E1,5.4312984E4,2.7972383E1,5.428501E4],"tree_param":{"num_deleted":"0","num_feature":"111427","num_nodes":"13","size_leaf_vector":"1"}},{"base_weights":[2.3687465E-4,1.93741E-1,-8.012843E-4,1.9867472E-1,-1.8139539E-3,1.8713266E-1,-2.8898884E-3,1.7490932E-1,-4.0400955E-3,1.9666289E-1,-5.06444E-3,1.7831515E-1,-6.1950425E-4],"categories":[],"categories_nodes":[],"categories_segments":[],"categories_sizes":[],"default_left":[0,0,0,0,0,0,0,0,0,0,0,0,0],"id":58,"left_children":[1,-1,3,-1,5,-1,7,-1,9,-1,11,-1,-1],"loss_changes":[1.0955069E2,0E0,1.0958516E2,0E0,1.09677216E2,0E0,1.0960523E2,0E0,1.0972849E2,0E0,1.09843956E2,0E0,0E0],"parents":[2147483647,0,0,2,2,4,4,6,6,8,8,10,10],"right_children":[2,-1,4,-1,6,-1,8,-1,10,-1,12,-1,-1],"split_conditions":[2.00001E0,1.93741E-1,2.00001E0,1.9867472E-1,2.00001E0,1.8713266E-1,2.00001E0,1.7490932E-1,2.00001E0,1.9666289E-1,2.00001E0,1.7831515E-1,-6.1950425E-4],"split_indices":[15751,0,83300,0,109836,0,20664,0,1409,0,39670,0,0],"split_type":[0,0,0,0,0,0,0,0,0,0,0,0,0],"sum_hessian":[5.4471426E4,2.8177334E1,5.444325E4,2.6726505E1,5.4416523E4,3.02411E1,5.438628E4,3.4685066E1,5.4351594E4,2.7240118E1,5.4324355E4,3.3329052E1,5.4291027E4],"tree_param":{"num_deleted":"0","num_feature":"111427","num_nodes":"13","size_leaf_vector":"1"}},{"base_weights":[2.3706415E-4,1.8235175E-1,-8.6277537E-4,1.808796E-1,-1.9726814E-3,1.6629177E-1,-3.1770356E-3,1.7862126E-1,-4.2996733E-3,2.1125722E-1,-5.2491403E-3,1.7849539E-1,-6.373306E-4],"categories":[],"categories_nodes":[],"categories_segments":[],"categories_sizes":[],"default_left":[0,0,0,0,0,0,0,0,0,0,0,0,0],"id":59,"left_children":[1,-1,3,-1,5,-1,7,-1,9,-1,11,-1,-1],"loss_changes":[1.0923116E2,0E0,1.0934542E2,0E0,1.0909534E2,0E0,1.0922303E2,0E0,1.092178E2,0E0,1.09311455E2,0E0,0E0],"parents":[2147483647,0,0,2,2,4,4,6,6,8,8,10,10],"right_children":[2,-1,4,-1,6,-1,8,-1,10,-1,12,-1,-1],"split_conditions":[2.00001E0,1.8235175E-1,2.00001E0,1.808796E-1,2.00001E0,1.6629177E-1,2.00001E0,1.7862126E-1,2.00001E0,2.1125722E-1,2.00001E0,1.7849539E-1,-6.373306E-4],"split_indices":[84650,0,89713,0,60838,0,95090,0,23537,0,64368,0,0],"split_type":[0,0,0,0,0,0,0,0,0,0,0,0,0],"sum_hessian":[5.446901E4,3.1838072E1,5.4437176E4,3.2368828E1,5.4404805E4,3.8329723E1,5.4366477E4,3.3090397E1,5.4333387E4,2.3361813E1,5.4310023E4,3.3086983E1,5.4276938E4],"tree_param":{"num_deleted":"0","num_feature":"111427","num_nodes":"13","size_leaf_vector":"1"}},{"base_weights":[2.3819006E-4,2.033819E-1,-7.432781E-4,1.8004712E-1,-1.8529224E-3,2.0831516E-1,-2.812327E-3,1.7724675E-1,-3.9405967E-3,1.943425E-1,-4.9698167E-3,1.7711936E-1,-6.0994824E-4],"categories":[],"categories_nodes":[],"categories_segments":[],"categories_sizes":[],"default_left":[0,0,0,0,0,0,0,0,0,0,0,0,0],"id":60,"left_children":[1,-1,3,-1,5,-1,7,-1,9,-1,11,-1,-1],"loss_changes":[1.0871085E2,0E0,1.0881533E2,0E0,1.0884293E2,0E0,1.08939156E2,0E0,1.0894377E2,0E0,1.0900913E2,0E0,0E0],"parents":[2147483647,0,0,2,2,4,4,6,6,8,8,10,10],"right_children":[2,-1,4,-1,6,-1,8,-1,10,-1,12,-1,-1],"split_conditions":[2.00001E0,2.033819E-1,2.00001E0,1.8004712E-1,2.00001E0,2.0831516E-1,2.00001E0,1.7724675E-1,2.00001E0,1.943425E-1,2.00001E0,1.7711936E-1,-6.0994824E-4],"split_indices":[14725,0,90819,0,86827,0,74610,0,1950,0,80801,0,0],"split_type":[0,0,0,0,0,0,0,0,0,0,0,0,0],"sum_hessian":[5.4465465E4,2.5274864E1,5.444019E4,3.251906E1,5.440767E4,2.4025717E1,5.4383645E4,3.3544147E1,5.43501E4,2.7712969E1,5.432239E4,3.3531944E1,5.4288855E4],"tree_param":{"num_deleted":"0","num_feature":"111427","num_nodes":"13","size_leaf_vector":"1"}},{"base_weights":[2.3776E-4,1.9342825E-1,-7.921249E-4,1.9332412E-1,-1.8224713E-3,1.7766188E-1,-2.944616E-3,1.8486892E-1,-4.0238374E-3,1.6975053E-1,-5.194176E-3,1.9711822E-1,-6.20288E-4],"categories":[],"categories_nodes":[],"categories_segments":[],"categories_sizes":[],"default_left":[0,0,0,0,0,0,0,0,0,0,0,0,0],"id":61,"left_children":[1,-1,3,-1,5,-1,7,-1,9,-1,11,-1,-1],"loss_changes":[1.08486015E2,0E0,1.084802E2,0E0,1.08586334E2,0E0,1.0866641E2,0E0,1.08228386E2,0E0,1.08279625E2,0E0,0E0],"parents":[2147483647,0,0,2,2,4,4,6,6,8,8,10,10],"right_children":[2,-1,4,-1,6,-1,8,-1,10,-1,12,-1,-1],"split_conditions":[2.00001E0,1.9342825E-1,2.00001E0,1.9332412E-1,2.00001E0,1.7766188E-1,2.00001E0,1.8486892E-1,2.00001E0,1.6975053E-1,2.00001E0,1.9711822E-1,-6.20288E-4],"split_indices":[48337,0,42536,0,81139,0,46637,0,94461,0,44892,0,0],"split_type":[0,0,0,0,0,0,0,0,0,0,0,0,0],"sum_hessian":[5.4463363E4,2.798742E1,5.443538E4,2.79862E1,5.440739E4,3.331012E1,5.4374082E4,3.0676132E1,5.4343406E4,3.6356304E1,5.4307047E4,2.6706774E1,5.428034E4],"tree_param":{"num_deleted":"0","num_feature":"111427","num_nodes":"13","size_leaf_vector":"1"}},{"base_weights":[2.3790672E-4,2.1210562E-1,-6.950771E-4,1.9355814E-1,-1.7177588E-3,1.9355814E-1,-2.7414837E-3,1.9267172E-1,-3.7706157E-3,1.8285611E-1,-4.8546554E-3,1.6498777E-1,-6.0568587E-4],"categories":[],"categories_nodes":[],"categories_segments":[],"categories_sizes":[],"default_left":[0,0,0,0,0,0,0,0,0,0,0,0,0],"id":62,"left_children":[1,-1,3,-1,5,-1,7,-1,9,-1,11,-1,-1],"loss_changes":[1.0776425E2,0E0,1.0780264E2,0E0,1.07916565E2,0E0,1.0799437E2,0E0,1.07975876E2,0E0,1.08078354E2,0E0,0E0],"parents":[2147483647,0,0,2,2,4,4,6,6,8,8,10,10],"right_children":[2,-1,4,-1,6,-1,8,-1,10,-1,12,-1,-1],"split_conditions":[2.00001E0,2.1210562E-1,2.00001E0,1.9355814E-1,2.00001E0,1.9355814E-1,2.00001E0,1.9267172E-1,2.00001E0,1.8285611E-1,2.00001E0,1.6498777E-1,-6.0568587E-4],"split_indices":[80068,0,13820,0,52881,0,83412,0,49241,0,110568,0,0],"split_type":[0,0,0,0,0,0,0,0,0,0,0,0,0],"sum_hessian":[5.44607E4,2.2948418E1,5.4437754E4,2.7738583E1,5.4410016E4,2.7738583E1,5.4382273E4,2.7993366E1,5.435428E4,3.1141176E1,5.432314E4,3.844282E1,5.42847E4],"tree_param":{"num_deleted":"0","num_feature":"111427","num_nodes":"13","size_leaf_vector":"1"}},{"base_weights":[2.373103E-4,1.8700579E-1,-8.182018E-4,1.9499767E-1,-1.8304018E-3,1.8467353E-1,-2.8995983E-3,1.9315171E-1,-3.922404E-3,1.7860545E-1,-5.029555E-3,1.9399945E-1,-6.04924E-4],"categories":[],"categories_nodes":[],"categories_segments":[],"categories_sizes":[],"default_left":[0,0,0,0,0,0,0,0,0,0,0,0,0],"id":63,"left_children":[1,-1,3,-1,5,-1,7,-1,9,-1,11,-1,-1],"loss_changes":[1.0748418E2,0E0,1.07480705E2,0E0,1.07531296E2,0E0,1.0758492E2,0E0,1.0770767E2,0E0,1.0772926E2,0E0,0E0],"parents":[2147483647,0,0,2,2,4,4,6,6,8,8,10,10],"right_children":[2,-1,4,-1,6,-1,8,-1,10,-1,12,-1,-1],"split_conditions":[2.00001E0,1.8700579E-1,2.00001E0,1.9499767E-1,2.00001E0,1.8467353E-1,2.00001E0,1.9315171E-1,2.00001E0,1.7860545E-1,2.00001E0,1.9399945E-1,-6.04924E-4],"split_indices":[90757,0,71419,0,12552,0,11872,0,91869,0,16460,0,0],"split_type":[0,0,0,0,0,0,0,0,0,0,0,0,0],"sum_hessian":[5.44587E4,2.9725548E1,5.4428973E4,2.7228125E1,5.4401746E4,3.0449514E1,5.4371297E4,2.77357E1,5.434356E4,3.2595676E1,5.4310965E4,2.7461397E1,5.4283504E4],"tree_param":{"num_deleted":"0","num_feature":"111427","num_nodes":"13","size_leaf_vector":"1"}},{"base_weights":[2.3656449E-4,1.9409817E-1,-7.773725E-4,1.8744598E-1,-1.8273707E-3,1.9392519E-1,-2.8431495E-3,1.6600811E-1,-4.0308465E-3,1.7905277E-1,-5.133214E-3,1.7904626E-1,-6.236851E-4],"categories":[],"categories_nodes":[],"categories_segments":[],"categories_sizes":[],"default_left":[0,0,0,0,0,0,0,0,0,0,0,0,0],"id":64,"left_children":[1,-1,3,-1,5,-1,7,-1,9,-1,11,-1,-1],"loss_changes":[1.07163246E2,0E0,1.07176636E2,0E0,1.0726819E2,0E0,1.07397026E2,0E0,1.0749943E2,0E0,1.0762323E2,0E0,0E0],"parents":[2147483647,0,0,2,2,4,4,6,6,8,8,10,10],"right_children":[2,-1,4,-1,6,-1,8,-1,10,-1,12,-1,-1],"split_conditions":[2.00001E0,1.9409817E-1,2.00001E0,1.8744598E-1,2.00001E0,1.9392519E-1,2.00001E0,1.6600811E-1,2.00001E0,1.7905277E-1,2.00001E0,1.7904626E-1,-6.236851E-4],"split_indices":[96462,0,10346,0,98249,0,52009,0,7470,0,18639,0,0],"split_type":[0,0,0,0,0,0,0,0,0,0,0,0,0],"sum_hessian":[5.4456824E4,2.7436884E1,5.4429387E4,2.9461027E1,5.4399926E4,2.7454912E1,5.437247E4,3.7809437E1,5.433466E4,3.2359863E1,5.43023E4,3.23597E1,5.426994E4],"tree_param":{"num_deleted":"0","num_feature":"111427","num_nodes":"13","size_leaf_vector":"1"}},{"base_weights":[2.3742241E-4,1.803237E-1,-8.5234345E-4,1.6639926E-1,-2.033959E-3,1.8023811E-1,-3.1258727E-3,1.936494E-1,-4.142924E-3,1.9890974E-1,-5.1330016E-3,1.9700713E-1,-6.1322254E-4],"categories":[],"categories_nodes":[],"categories_segments":[],"categories_sizes":[],"default_left":[0,0,0,0,0,0,0,0,0,0,0,0,0],"id":65,"left_children":[1,-1,3,-1,5,-1,7,-1,9,-1,11,-1,-1],"loss_changes":[1.0699654E2,0E0,1.07064095E2,0E0,1.0715876E2,0E0,1.0723025E2,0E0,1.0721997E2,0E0,1.0718194E2,0E0,0E0],"parents":[2147483647,0,0,2,2,4,4,6,6,8,8,10,10],"right_children":[2,-1,4,-1,6,-1,8,-1,10,-1,12,-1,-1],"split_conditions":[2.00001E0,1.803237E-1,2.00001E0,1.6639926E-1,2.00001E0,1.8023811E-1,2.00001E0,1.936494E-1,2.00001E0,1.9890974E-1,2.00001E0,1.9700713E-1,-6.1322254E-4],"split_indices":[102659,0,50725,0,39973,0,66975,0,20898,0,48925,0,0],"split_type":[0,0,0,0,0,0,0,0,0,0,0,0,0],"sum_hessian":[5.44536E4,3.1893946E1,5.442171E4,3.760008E1,5.438411E4,3.189213E1,5.435222E4,2.7487638E1,5.432473E4,2.5973715E1,5.4298754E4,2.6458578E1,5.4272297E4],"tree_param":{"num_deleted":"0","num_feature":"111427","num_nodes":"13","size_leaf_vector":"1"}},{"base_weights":[2.3760063E-4,1.901018E-1,-7.917123E-4,5.9684063E-3,-2.9171282E-1,1.8912707E-1,4.9132532E-3,1.903768E-1,-3.3811554E-1,1.7182736E-1,3.7507715E-3,1.7891532E-1,-3.8872778E-1,1.6485088E-1,2.5374666E-3,1.978829E-1,-4.3720806E-1,1.8128584E-1,1.4336078E-4,1.6676782E-1,-4.9203776E-2],"categories":[],"categories_nodes":[],"categories_segments":[],"categories_sizes":[],"default_left":[0,0,0,0,0,0,0,0,0,0,0,0,0,0,0,0,0,0,0,0,0],"id":66,"left_children":[1,-1,3,5,7,-1,9,-1,11,-1,13,-1,15,-1,17,-1,19,-1,-1,-1,-1],"loss_changes":[1.06536575E2,0E0,1.0703423E2,1.0579769E2,1.2655636E2,0E0,1.0587452E2,0E0,1.3110077E2,0E0,1.0601115E2,0E0,1.3675041E2,0E0,1.0608236E2,0E0,1.3480505E2,0E0,0E0,0E0,0E0],"parents":[2147483647,0,0,2,2,3,3,4,4,6,6,8,8,10,10,12,12,14,14,16,16],"right_children":[2,-1,4,6,8,-1,10,-1,12,-1,14,-1,16,-1,18,-1,20,-1,-1,-1,-1],"split_conditions":[2.00001E0,1.901018E-1,1.6204346E0,2.00001E0,2.00001E0,1.8912707E-1,2.00001E0,1.903768E-1,2.00001E0,1.7182736E-1,2.00001E0,1.7891532E-1,2.00001E0,1.6485088E-1,2.00001E0,1.978829E-1,2.00001E0,1.8128584E-1,1.4336078E-4,1.6676782E-1,-4.9203776E-2],"split_indices":[85313,0,2,52730,3125,0,36910,0,85301,0,89054,0,73209,0,41487,0,42512,0,0,0,0],"split_type":[0,0,0,0,0,0,0,0,0,0,0,0,0,0,0,0,0,0,0,0,0],"sum_hessian":[5.4450926E4,2.847133E1,5.4422453E4,5.3187516E4,1.2349362E3,2.8748932E1,5.315877E4,2.4732353E1,1.2102037E3,3.5041225E1,5.3123727E4,2.7325914E1,1.1828778E3,3.8158615E1,5.3085566E4,2.293669E1,1.1599412E3,3.1349478E1,5.305422E4,2.8701164E1,1.13124E3],"tree_param":{"num_deleted":"0","num_feature":"111427","num_nodes":"21","size_leaf_vector":"1"}},{"base_weights":[2.4678448E-4,1.8130536E-1,-8.327634E-4,1.5805773E-1,-2.0700977E-3,1.6603729E-1,-3.247653E-3,1.8029745E-1,-4.333548E-3,1.8021189E-1,-5.4201344E-3,1.6576855E-1,-6.602016E-4],"categories":[],"categories_nodes":[],"categories_segments":[],"categories_sizes":[],"default_left":[0,0,0,0,0,0,0,0,0,0,0,0,0],"id":67,"left_children":[1,-1,3,-1,5,-1,7,-1,9,-1,11,-1,-1],"loss_changes":[1.0654154E2,0E0,1.0646667E2,0E0,1.06435646E2,0E0,1.06568375E2,0E0,1.0658971E2,0E0,1.0667671E2,0E0,0E0],"parents":[2147483647,0,0,2,2,4,4,6,6,8,8,10,10],"right_children":[2,-1,4,-1,6,-1,8,-1,10,-1,12,-1,-1],"split_conditions":[2.00001E0,1.8130536E-1,2.00001E0,1.5805773E-1,2.00001E0,1.6603729E-1,2.00001E0,1.8029745E-1,2.00001E0,1.8021189E-1,2.00001E0,1.6576855E-1,-6.602016E-4],"split_indices":[95782,0,17409,0,85678,0,83108,0,103940,0,92432,0,0],"split_type":[0,0,0,0,0,0,0,0,0,0,0,0,0],"sum_hessian":[5.4439152E4,3.1400919E1,5.4407754E4,4.1538776E1,5.4366215E4,3.7484524E1,5.432873E4,3.1645628E1,5.4297086E4,3.1643833E1,5.426544E4,3.754088E1,5.42279E4],"tree_param":{"num_deleted":"0","num_feature":"111427","num_nodes":"13","size_leaf_vector":"1"}},{"base_weights":[2.4946957E-4,1.7489952E-1,-8.6377864E-4,1.649534E-1,-2.0448694E-3,1.7675722E-1,-3.1478961E-3,1.8406396E-1,-4.20591E-3,1.5793093E-1,-5.439249E-3,1.7797576E-1,-6.535552E-4],"categories":[],"categories_nodes":[],"categories_segments":[],"categories_sizes":[],"default_left":[0,0,0,0,0,0,0,0,0,0,0,0,0],"id":68,"left_children":[1,-1,3,-1,5,-1,7,-1,9,-1,11,-1,-1],"loss_changes":[1.0597323E2,0E0,1.0604461E2,0E0,1.0611782E2,0E0,1.0599159E2,0E0,1.0605627E2,0E0,1.0620146E2,0E0,0E0],"parents":[2147483647,0,0,2,2,4,4,6,6,8,8,10,10],"right_children":[2,-1,4,-1,6,-1,8,-1,10,-1,12,-1,-1],"split_conditions":[2.00001E0,1.7489952E-1,2.00001E0,1.649534E-1,2.00001E0,1.7675722E-1,2.00001E0,1.8406396E-1,2.00001E0,1.5793093E-1,2.00001E0,1.7797576E-1,-6.535552E-4],"split_indices":[55475,0,26292,0,77283,0,108516,0,37354,0,78714,0,0],"split_type":[0,0,0,0,0,0,0,0,0,0,0,0,0],"sum_hessian":[5.4433133E4,3.3631115E1,5.4399504E4,3.7904575E1,5.4361598E4,3.2865627E1,5.4328734E4,3.0160234E1,5.4298574E4,4.1262367E1,5.425731E4,3.2303646E1,5.4225008E4],"tree_param":{"num_deleted":"0","num_feature":"111427","num_nodes":"13","size_leaf_vector":"1"}},{"base_weights":[2.515693E-4,1.9510926E-1,-7.4269326E-4,1.9510926E-1,-1.7379333E-3,1.8047383E-1,-2.8149127E-3,1.9510926E-1,-3.8122374E-3,1.9510926E-1,-4.8105437E-3,1.6806515E-1,-5.9696723E-4],"categories":[],"categories_nodes":[],"categories_segments":[],"categories_sizes":[],"default_left":[0,0,0,0,0,0,0,0,0,0,0,0,0],"id":69,"left_children":[1,-1,3,-1,5,-1,7,-1,9,-1,11,-1,-1],"loss_changes":[1.05573555E2,0E0,1.0568122E2,0E0,1.0579375E2,0E0,1.05905785E2,0E0,1.0601394E2,0E0,1.0607495E2,0E0,0E0],"parents":[2147483647,0,0,2,2,4,4,6,6,8,8,10,10],"right_children":[2,-1,4,-1,6,-1,8,-1,10,-1,12,-1,-1],"split_conditions":[2.00001E0,1.9510926E-1,2.00001E0,1.9510926E-1,2.00001E0,1.8047383E-1,2.00001E0,1.9510926E-1,2.00001E0,1.9510926E-1,2.00001E0,1.6806515E-1,-5.9696723E-4],"split_indices":[10965,0,72604,0,64916,0,87926,0,94139,0,104944,0,0],"split_type":[0,0,0,0,0,0,0,0,0,0,0,0,0],"sum_hessian":[5.442748E4,2.6726183E1,5.4400754E4,2.6726183E1,5.4374027E4,3.1399384E1,5.434263E4,2.6726183E1,5.4315902E4,2.6726183E1,5.4289176E4,3.6314404E1,5.4252863E4],"tree_param":{"num_deleted":"0","num_feature":"111427","num_nodes":"13","size_leaf_vector":"1"}},{"base_weights":[2.4975746E-4,1.817953E-1,-8.151142E-4,1.7134112E-1,-1.9457896E-3,1.9382326E-1,-2.9450778E-3,1.9369785E-1,-3.944747E-3,1.9265014E-1,-4.949074E-3,1.8063276E-1,-6.02025E-4],"categories":[],"categories_nodes":[],"categories_segments":[],"categories_sizes":[],"default_left":[0,0,0,0,0,0,0,0,0,0,0,0,0],"id":70,"left_children":[1,-1,3,-1,5,-1,7,-1,9,-1,11,-1,-1],"loss_changes":[1.0535014E2,0E0,1.0543438E2,0E0,1.0539985E2,0E0,1.0537584E2,0E0,1.0529906E2,0E0,1.05323524E2,0E0,0E0],"parents":[2147483647,0,0,2,2,4,4,6,6,8,8,10,10],"right_children":[2,-1,4,-1,6,-1,8,-1,10,-1,12,-1,-1],"split_conditions":[2.00001E0,1.817953E-1,2.00001E0,1.7134112E-1,2.00001E0,1.9382326E-1,2.00001E0,1.9369785E-1,2.00001E0,1.9265014E-1,2.00001E0,1.8063276E-1,-6.02025E-4],"split_indices":[66713,0,89281,0,38408,0,43246,0,76354,0,62832,0,0],"split_type":[0,0,0,0,0,0,0,0,0,0,0,0,0],"sum_hessian":[5.4425297E4,3.0866533E1,5.439443E4,3.485581E1,5.4359574E4,2.6985498E1,5.4332586E4,2.6986464E1,5.43056E4,2.724121E1,5.427836E4,3.1084791E1,5.4247273E4],"tree_param":{"num_deleted":"0","num_feature":"111427","num_nodes":"13","size_leaf_vector":"1"}},{"base_weights":[2.489137E-4,1.9191925E-1,-7.546844E-4,1.9710927E-1,-1.7322956E-3,1.9710927E-1,-2.7108407E-3,1.9710927E-1,-3.690321E-3,1.9428056E-1,-4.6844156E-3,1.9416685E-1,-5.678905E-4],"categories":[],"categories_nodes":[],"categories_segments":[],"categories_sizes":[],"default_left":[0,0,0,0,0,0,0,0,0,0,0,0,0],"id":71,"left_children":[1,-1,3,-1,5,-1,7,-1,9,-1,11,-1,-1],"loss_changes":[1.048129E2,0E0,1.04862724E2,0E0,1.0496675E2,0E0,1.0507093E2,0E0,1.0511489E2,0E0,1.0509914E2,0E0,0E0],"parents":[2147483647,0,0,2,2,4,4,6,6,8,8,10,10],"right_children":[2,-1,4,-1,6,-1,8,-1,10,-1,12,-1,-1],"split_conditions":[2.00001E0,1.9191925E-1,2.00001E0,1.9710927E-1,2.00001E0,1.9710927E-1,2.00001E0,1.9710927E-1,2.00001E0,1.9428056E-1,2.00001E0,1.9416685E-1,-5.678905E-4],"split_indices":[107667,0,24331,0,99458,0,104916,0,49168,0,93915,0,0],"split_type":[0,0,0,0,0,0,0,0,0,0,0,0,0],"sum_hessian":[5.4422523E4,2.7448751E1,5.4395074E4,2.595624E1,5.4369117E4,2.595624E1,5.434316E4,2.595624E1,5.4317203E4,2.6729086E1,5.4290477E4,2.6729E1,5.4263746E4],"tree_param":{"num_deleted":"0","num_feature":"111427","num_nodes":"13","size_leaf_vector":"1"}},{"base_weights":[2.456871E-4,1.9699082E-1,-7.3034235E-4,1.9683157E-1,-1.7073976E-3,1.7409527E0,-2.8129169E-3,5.50144E-2,1.7753984E-1,1.7763999E-1,-3.896519E-3,1.7082617E-1,-5.024148E-3,1.5502457E-1,-6.2678184E-4],"categories":[],"categories_nodes":[],"categories_segments":[],"categories_sizes":[],"default_left":[0,0,0,0,0,0,0,0,0,0,0,0,0,0,0],"id":72,"left_children":[1,-1,3,-1,5,7,9,-1,-1,-1,11,-1,13,-1,-1],"loss_changes":[1.0462673E2,0E0,1.046559E2,0E0,1.0475305E2,4.3724823E-1,1.0476745E2,0E0,0E0,0E0,1.04854996E2,0E0,1.0498242E2,0E0,0E0],"parents":[2147483647,0,0,2,2,4,4,5,5,6,6,10,10,12,12],"right_children":[2,-1,4,-1,6,8,10,-1,-1,-1,12,-1,14,-1,-1],"split_conditions":[2.00001E0,1.9699082E-1,2.00001E0,1.9683157E-1,2.00001E0,-1.831164E-1,2.00001E0,5.50144E-2,1.7753984E-1,1.7763999E-1,2.00001E0,1.7082617E-1,2.00001E0,1.5502457E-1,-6.2678184E-4],"split_indices":[10522,0,49649,0,17646,1,46953,0,0,0,45149,0,35175,0,0],"split_type":[0,0,0,0,0,0,0,0,0,0,0,0,0,0,0],"sum_hessian":[5.4421938E4,2.5955284E1,5.4395984E4,2.5979668E1,5.4370004E4,3.3471954E1,5.433653E4,1.4181176E0,3.2053837E1,3.2075485E1,5.4304457E4,3.4745018E1,5.426971E4,4.236687E1,5.4227344E4],"tree_param":{"num_deleted":"0","num_feature":"111427","num_nodes":"15","size_leaf_vector":"1"}},{"base_weights":[2.4763413E-4,1.6819435E-1,-8.9167897E-4,1.5855147E-1,-2.1011457E-3,2.0824063E-1,-3.022999E-3,1.775256E-1,-4.1048042E-3,1.8144731E-1,-5.164247E-3,1.8059832E-1,-6.2297605E-4],"categories":[],"categories_nodes":[],"categories_segments":[],"categories_sizes":[],"default_left":[0,0,0,0,0,0,0,0,0,0,0,0,0],"id":73,"left_children":[1,-1,3,-1,5,-1,7,-1,9,-1,11,-1,-1],"loss_changes":[1.04266396E2,0E0,1.043479E2,0E0,1.0443112E2,0E0,1.04504166E2,0E0,1.04603615E2,0E0,1.0471596E2,0E0,0E0],"parents":[2147483647,0,0,2,2,4,4,6,6,8,8,10,10],"right_children":[2,-1,4,-1,6,-1,8,-1,10,-1,12,-1,-1],"split_conditions":[2.00001E0,1.6819435E-1,2.00001E0,1.5855147E-1,2.00001E0,2.0824063E-1,2.00001E0,1.775256E-1,2.00001E0,1.8144731E-1,2.00001E0,1.8059832E-1,-6.2297605E-4],"split_indices":[76635,0,53031,0,66863,0,40563,0,51740,0,30109,0,0],"split_type":[0,0,0,0,0,0,0,0,0,0,0,0,0],"sum_hessian":[5.441763E4,3.5843033E1,5.438179E4,4.043085E1,5.4341355E4,2.3023214E1,5.4318332E4,3.202705E1,5.4286305E4,3.06104E1,5.4255695E4,3.0904354E1,5.4224793E4],"tree_param":{"num_deleted":"0","num_feature":"111427","num_nodes":"13","size_leaf_vector":"1"}},{"base_weights":[2.486026E-4,1.9465204E-1,-7.34506E-4,1.9921443E-1,-1.6956988E-3,1.7802534E0,-2.7717627E-3,5.828863E-2,1.8089198E-1,1.5983452E-1,-3.97134E-3,1.8340944E-1,-5.0182813E-3,1.8632357E-1,-6.0498505E-4],"categories":[],"categories_nodes":[],"categories_segments":[],"categories_sizes":[],"default_left":[0,0,0,0,0,0,0,0,0,0,0,0,0,0,0],"id":74,"left_children":[1,-1,3,-1,5,7,9,-1,-1,-1,11,-1,13,-1,-1],"loss_changes":[1.041174E2,0E0,1.0418532E2,0E0,1.0424459E2,7.1762085E-2,1.0435741E2,0E0,0E0,0E0,1.0448393E2,0E0,1.0458515E2,0E0,0E0],"parents":[2147483647,0,0,2,2,4,4,5,5,6,6,10,10,12,12],"right_children":[2,-1,4,-1,6,8,10,